263 128
266 -0.07217809 -0.15780224 -0.017357167 0.0024369694 -0.015993048 0.11376266 -0.013446584 -0.09585862 0.14389016 -0.049826708 -0.26023036 0.022713114 -0.096744485 0.050280783 0.087920085 0.3708056 0.29244065 -0.14154278 -0.0021931613 -0.17187165 0.13945127 0.33841458 0.09348673 -0.030898957 -0.13378309 0.48561728 0.2723399 -0.20850438 -0.42383423 0.13905917 -0.09783935 0.25767425 -0.27771673 0.21429059 -0.05170537 0.008642423 0.24456155 -0.0021820648 -0.05322581 0.16195937 -0.33176747 0.0027051703 -0.01422025 -0.34931046 -0.24600355 -0.051041283 -0.10615862 -0.12746467 -0.20924856 -0.20630763 -0.01468146 -0.008436426 0.1858024 0.38237473 0.30753955 0.34859425 -0.19751447 0.1014031 -0.09907392 -0.23320515 -0.0658389 0.31576353 -0.23116986 0.116331644 0.21699755 -0.1840034 0.06964307 -0.056222744 0.28911126 -0.053179927 0.034247395 0.05329076 -0.12387762 0.10660749 -0.40111217 0.05705547 0.13308178 0.1832679 0.16127732 -0.06945697 -0.27435866 0.30772346 -0.1318091 -0.09164122 -0.17772092 -0.3246072 0.42777225 -0.019433603 0.26137924 -0.27770984 -0.05708413 -0.25307488 -0.115818135 -0.020608125 -0.058644444 0.03801295 0.08450858 -0.2719994 0.12217363 0.31378123 0.16271465 -0.28167936 -0.0975363 0.3436358 0.15715963 -0.2801486 -0.002065771 0.019780092 0.12783213 0.18162893 0.21560061 -0.1731304 -0.10823122 0.29003155 -0.013120711 0.25062138 -0.021512518 -0.08750997 -0.027549848 0.11079952 0.04576065 0.021687623 -0.23033401 -0.11817071 0.029019052 -0.07026171 0.062107705 0.0011634098
866 -0.0012864997 -0.35657334 0.062645 0.036416892 -0.06740336 0.13786162 0.016212773 -0.15761493 0.1316404 -0.050816327 -0.242289 -0.08775004 -0.05330698 0.15175457 0.23606488 0.4027073 0.2691731 -0.11109845 0.020047087 -0.1381091 0.1126441 0.3539905 0.11478299 -0.021962877 -0.19490388 0.4572602 0.29656532 -0.25732186 -0.4099419 0.09064949 0.021086449 0.27960995 -0.32291013 0.22711074 -0.0024622777 -0.027499788 0.21290974 0.023081668 -0.10692174 0.13488863 -0.288657 -0.034423795 -0.014139427 -0.3746347 -0.22521308 0.024203159 -0.036662452 -0.18867855 -0.16292387 -0.16886906 -0.082365595 0.01621633 0.1359013 0.47504488 0.37897533 0.40062407 -0.14712393 0.1731492 -0.16578576 -0.18066196 -0.07215942 0.2898319 -0.16487041 0.13079181 0.2660252 -0.2561457 0.10977067 -0.108342804 0.12356609 0.033149283 0.027996466 0.05956689 -0.21670909 0.15737742 -0.51818645 0.11675142 0.15244994 0.1990742 0.06145168 -0.1008535 -0.23986244 0.37007597 -0.045180466 -0.0004780836 -0.25510085 -0.32311684 0.41350064 -0.019443033 0.3481607 -0.30549124 -0.105922826 -0.25627673 -0.016157702 0.010006543 0.0039963033 0.11629053 0.13199274 -0.18735902 0.12136444 0.30828035 0.15969755 -0.28183973 -0.10425649 0.34652683 0.16724351 -0.3238698 0.012001272 -0.04436129 0.11990359 0.1751318 0.25616932 -0.16113132 -0.15915455 0.3306369 0.0327853 0.2548409 0.022279233 -0.10377338 -0.12951975 0.15845154 0.070895985 0.085214004 -0.2050722 -0.15549007 0.044909514 -0.024284104 0.057826173 -0.060899694
427 0.1575102 -0.4622012 0.10062456 0.009574531 -0.059111666 0.11520509 0.07477528 -0.17733829 0.07404207 0.045917206 -0.178282 -0.16504413 0.0026764534 0.19920962 0.24663617 0.33917916 0.19941135 0.042126175 0.004890972 -0.1379922 0.026710497 0.23569462 0.12271488 -0.011853503 -0.25519288 0.27969068 0.2321501 -0.24145405 -0.2570635 0.07367659 0.20462766 0.30438882 -0.26237065 0.22047818 0.115406826 -0.0553079 0.0004789692 -0.017351246 -0.1742594 0.012655614 -0.043431733 -0.04967035 -0.04964329 -0.27683443 -0.009130743 0.15399082 0.14740904 -0.09555136 -0.017856149 -0.18078315 -0.13135669 0.0666659 0.111589015 0.33915946 0.30376238 0.30179617 -0.023245504 0.07912612 -0.1478816 -0.009670785 -0.06870279 0.08124496 -0.060419574 0.09790353 0.21657027 -0.23801886 0.12593453 -0.025815357 -0.18509994 0.026013965 0.051275507 0.0030311826 -0.2676708 0.10283577 -0.4796685 0.15517262 0.011968644 0.09468328 0.0032850388 -0.13261639 -0.18362182 0.362099 0.10019679 0.119862765 -0.2907051 -0.15727876 0.33805943 -0.10926207 0.32147357 -0.19091637 -0.16863982 -0.17623551 0.040566955 0.020545982 0.018289832 0.17266087 0.17628096 0.02254294 0.18541269 0.25654528 0.105386056 -0.13938765 -0.3017254 0.4193831 0.090218335 -0.24448872 0.03295617 -0.11036978 0.19667928 0.19412635 0.26463154 -0.23556978 -0.21096884 0.29381347 -0.017634748 0.20496473 0.15964106 -0.13150422 -0.043286745 0.08031288 0.097439684 0.0027396996 -0.08839365 -0.08190287 0.11050087 0.056149475 -0.08117364 -0.24326055
42 -0.032388255 -0.12366 -0.013457326 -0.013143639 -0.02785416 0.0977347 -0.0077899434 -0.096998475 0.14064083 -0.06058988 -0.23924844 -0.012570392 -0.05112112 0.082892776 0.089663185 0.30773568 0.20296113 -0.11802814 0.0081089735 -0.19314773 0.08092693 0.29424217 0.093739055 -0.018490808 -0.17276098 0.43671468 0.25414997 -0.17938088 -0.39998204 0.15019305 -0.055543523 0.245161 -0.2522311 0.16985914 -0.014603371 0.055960853 0.23470113 0.017704342 -0.045531306 0.12343463 -0.28327647 0.008640566 -0.02080632 -0.27458233 -0.17388558 -0.046960324 -0.115567066 -0.12019593 -0.18957868 -0.19129325 -0.002802373 -0.008646283 0.1562553 0.34568778 0.28711313 0.31475362 -0.17307289 0.10235464 -0.11781479 -0.19766499 -0.053493064 0.28221092 -0.18858431 0.097856134 0.19502845 -0.16022511 0.10933992 -0.068578064 0.2543193 -0.024070704 0.04446599 0.07935047 -0.11511165 0.094980896 -0.35017842 0.025848147 0.093887866 0.14110743 0.15680097 -0.09821086 -0.25652036 0.2569171 -0.12793204 -0.06986311 -0.19264957 -0.27018407 0.34372216 -0.012635384 0.25910246 -0.20427918 -0.07574875 -0.24761742 -0.11613571 0.02038346 -0.055509143 0.030445311 0.11754114 -0.2465052 0.1339396 0.2609411 0.16407512 -0.2231851 -0.12514415 0.33588374 0.1383066 -0.23971848 0.036783405 -0.007729342 0.11498224 0.13822737 0.1940468 -0.17532665 -0.07025592 0.2681732 -0.05362572 0.23691863 0.029079437 -0.11556752 -0.015492211 0.10124154 0.047627337 0.0015418208 -0.21831183 -0.09038238 0.036133103 -0.03459615 0.023565985 -0.0101993885
961 0.059144117 -0.4741387 0.13663408 0.037996814 -0.05365821 0.11088754 0.029452732 -0.16023463 0.113427915 -0.025877036 -0.1783865 -0.11482924 -0.033952955 0.13675453 0.2906529 0.3915141 0.2647468 -0.08857189 0.061629757 -0.10837556 0.08921691 0.34408706 0.10646743 -0.015622441 -0.21488073 0.3883067 0.30169997 -0.2742938 -0.32917547 -0.0006919608 0.09955708 0.24233462 -0.32942325 0.27067468 0.0035868657 -0.09225956 0.17744805 0.03818593 -0.11854083 0.07481751 -0.24831921 -0.09145966 -0.03610042 -0.37698802 -0.19522184 0.087320685 -0.02459447 -0.22345111 -0.049978018 -0.120327 -0.104960606 0.029232573 0.07870513 0.4558813 0.3462342 0.33450267 -0.13312052 0.1195036 -0.15803574 -0.08905696 -0.08422495 0.18593101 -0.088973194 0.11072722 0.23627429 -0.30797672 0.12002777 -0.1604549 0.029823124 0.09638741 -0.006775793 0.04607381 -0.248499 0.14036712 -0.5094786 0.1709136 0.13174917 0.18773511 -0.0031493704 -0.087259375 -0.15144207 0.40663868 0.061951563 0.06677176 -0.23194703 -0.32996696 0.3699353 0.004611695 0.35346982 -0.29529378 -0.098624215 -0.20972136 0.06427985 0.025373688 0.026184434 0.16026436 0.10819258 -0.12651706 0.09805697 0.28624597 0.16893266 -0.2829914 -0.10428627 0.25782833 0.11360523 -0.34500292 0.006555547 -0.09268215 0.12712851 0.1567038 0.24815938 -0.11214103 -0.17639981 0.33426154 0.042910937 0.22731502 0.036372077 -0.032655217 -0.15910524 0.14967327 0.084598765 0.094044626 -0.18574533 -0.18226278 0.036106236 0.013561587 0.05643431 -0.076539814
274 0.0021558034 -0.28598368 0.02284322 -0.0015291749 -0.077041075 0.12987326 -0.019560397 -0.13101591 0.120425396 -0.010687394 -0.24412476 -0.07207138 -0.028114967 0.16578738 0.14953557 0.388467 0.24691032 -0.07919778 -0.0020551926 -0.16093233 0.08061296 0.30192366 0.09842542 -0.013339316 -0.18615407 0.37579283 0.24099842 -0.19881909 -0.39096808 0.13895361 0.025601203 0.2566165 -0.2390684 0.17700312 0.017425617 0.018260136 0.14621708 -0.026978157 -0.11075793 0.11905438 -0.22398621 0.008644127 -0.02542706 -0.29959986 -0.14787993 0.021871364 0.0013328305 -0.14864293 -0.17140935 -0.19012964 -0.074807696 0.041899968 0.14746493 0.42123237 0.33643347 0.3418338 -0.10393765 0.1737234 -0.106576726 -0.18974122 -0.045744978 0.27390826 -0.15289113 0.12413454 0.23280112 -0.18972816 0.121758305 -0.04411098 0.09632051 -0.0062432094 0.03174676 0.06456763 -0.17857225 0.13848834 -0.4614081 0.08090951 0.12505975 0.15033804 0.09614176 -0.12909073 -0.2963003 0.3150485 -0.04662654 -0.0046104267 -0.2834959 -0.2484343 0.38720465 -0.053652786 0.33612946 -0.2454222 -0.11425259 -0.22376156 -0.05828718 -0.014625019 0.003659627 0.09655695 0.15400168 -0.15524939 0.14852776 0.30823195 0.105155684 -0.20944674 -0.16418706 0.3813656 0.15167396 -0.2669843 0.042596437 -0.059105825 0.1526296 0.19044036 0.27355787 -0.2145434 -0.13965829 0.29535908 0.0026874556 0.24131921 0.064172 -0.13400239 -0.065630846 0.11011665 0.061916336 0.017793486 -0.20088282 -0.110118814 0.040875554 -0.031011133 0.012858842 -0.078523174
459 -0.026832728 -0.41283065 0.13185047 0.06061068 -0.026965396 0.14095394 -0.004542871 -0.12745917 0.14064234 -0.07087517 -0.20071398 -0.06960978 -0.06047319 0.089345925 0.21507037 0.3564417 0.3021499 -0.12032512 0.11868385 -0.091004096 0.07206513 0.34416083 0.087108165 0.0012769902 -0.18312623 0.44526103 0.32574233 -0.2561099 -0.3407347 -0.008418107 0.027751852 0.22124945 -0.35054913 0.2450075 -0.037471812 -0.09704425 0.23913476 0.06804935 -0.1037409 0.09325404 -0.34338164 -0.06122183 -0.022305714 -0.37119806 -0.26032397 0.005772121 -0.09057681 -0.24119055 -0.08552164 -0.13998088 -0.09647227 0.017325882 0.120139495 0.40767097 0.32213956 0.33570364 -0.17687823 0.11858102 -0.11101592 -0.10984558 -0.063616194 0.23058517 -0.1212761 0.08648169 0.20450433 -0.2906159 0.10814208 -0.18526231 0.15388222 0.04538405 -0.035402708 0.04812039 -0.19399261 0.11955489 -0.4454216 0.1575838 0.12697604 0.19252573 0.011896403 -0.081730984 -0.18411185 0.3498743 -0.023189796 0.045168992 -0.1911134 -0.34258342 0.41983166 0.021265004 0.27033794 -0.309713 -0.05364016 -0.2286531 0.044329755 0.012710829 0.012970018 0.1486584 0.042666074 -0.17884758 0.054313585 0.28123444 0.14938028 -0.29764614 -0.023720672 0.17520553 0.09459834 -0.31380075 -0.017686972 -0.04857085 0.108670875 0.14563093 0.22041723 -0.08718516 -0.11549314 0.25615433 0.045989975 0.18853194 -0.02261489 0.035202194 -0.14464378 0.16589998 0.045690384 0.10401957 -0.23177277 -0.17200455 0.00749982 0.017503107 0.098023266 0.0071375784
686 -0.023934372 -0.29128274 0.057294514 0.03049363 -0.044680443 0.14880253 0.009372912 -0.122087486 0.12684709 -0.06440289 -0.23085089 -0.056713797 -0.06280486 0.10890191 0.15958601 0.3501289 0.26559094 -0.11380689 0.063488536 -0.13559762 0.067950554 0.3101547 0.09201009 0.002751535 -0.18183245 0.4500388 0.27877703 -0.2170023 -0.37318286 0.09984393 -0.0059556677 0.25209922 -0.30284056 0.21328889 -0.019804388 -0.021744482 0.20730981 0.024755547 -0.0946345 0.110048026 -0.2997787 -0.009931324 -0.0389223 -0.3252106 -0.19033682 -0.0064081503 -0.07182094 -0.17104101 -0.14994167 -0.16295598 -0.075055525 0.016498553 0.14415735 0.38993484 0.31397212 0.34493706 -0.1638275 0.12942871 -0.114810966 -0.15864696 -0.04233642 0.26004216 -0.16523206 0.09330638 0.20900778 -0.21781513 0.10584084 -0.10270696 0.17112003 0.009548061 0.0137294475 0.058022857 -0.15807815 0.10849356 -0.41523206 0.08612168 0.10843206 0.15126081 0.10997755 -0.10190457 -0.26240477 0.31221277 -0.09498872 -0.00091536855 -0.22214374 -0.2868739 0.39859918 -0.017000243 0.2752372 -0.23903109 -0.07997266 -0.2495419 -0.048220757 0.017249659 -0.00823565 0.091769904 0.114721425 -0.20135754 0.111599036 0.2900186 0.14650011 -0.26208612 -0.09382142 0.30123818 0.12878218 -0.28568146 0.01185984 -0.03072622 0.12409322 0.1388254 0.22689863 -0.15398198 -0.092826225 0.277958 -0.014638487 0.23421521 0.02822423 -0.065469116 -0.05001626 0.12260509 0.036100984 0.058459673 -0.21983357 -0.12113848 0.030329853 -0.011137981 0.047320053 -0.02047602
461 -0.02289608 -0.28105173 0.049844094 0.02155389 -0.030491158 0.14147198 0.013107946 -0.123278245 0.12471572 -0.05122078 -0.2236919 -0.0454627 -0.08102647 0.09657669 0.14145485 0.34637633 0.2612913 -0.08813311 0.046639796 -0.13857204 0.07289959 0.30112794 0.08114915 -0.010598866 -0.18935493 0.4484912 0.26898265 -0.21302563 -0.36245447 0.10001647 0.004568093 0.26495576 -0.30029434 0.2135145 -0.0164822 -0.04478648 0.18123057 0.012835994 -0.0963131 0.1153252 -0.26000538 -0.0150624225 -0.022531016 -0.32225403 -0.20098987 0.0063602785 -0.04578822 -0.14844653 -0.14810094 -0.19653264 -0.06489948 0.019701604 0.15476573 0.3702495 0.30613852 0.34963903 -0.15227523 0.10735617 -0.11673509 -0.15108623 -0.04481193 0.24014695 -0.14879267 0.09663693 0.22406192 -0.21047464 0.097075075 -0.085061386 0.14307386 -0.0052788393 0.025998406 0.038584825 -0.16148786 0.0990329 -0.42703694 0.100201644 0.09566107 0.15839356 0.08545073 -0.0975808 -0.2500729 0.3282149 -0.074369945 0.009150828 -0.21506205 -0.27995014 0.42146453 -0.035341516 0.2524352 -0.25662693 -0.08808553 -0.24432419 -0.053574245 0.0061762575 -0.024921801 0.09477626 0.094357446 -0.19020857 0.12190689 0.29545712 0.1416261 -0.24903943 -0.12742035 0.32709476 0.13155988 -0.26830545 -0.0126295015 -0.020861853 0.13628207 0.16807526 0.23311208 -0.17176333 -0.11855611 0.27644604 -0.010434338 0.22962637 0.0146817975 -0.067302465 -0.06353087 0.13202669 0.045975633 0.04856624 -0.20641255 -0.11231871 0.04706704 -0.012601815 0.0544695 -0.051658656
80 -0.009695657 -0.40001246 0.120541245 0.056243595 -0.03965492 0.123912156 -0.0076136068 -0.1378723 0.1404973 -0.070003904 -0.19825414 -0.07052457 -0.04967119 0.09349908 0.2337005 0.36622992 0.2840295 -0.13145752 0.09731279 -0.09755757 0.09052126 0.34822226 0.08805042 -0.014625034 -0.1730335 0.43554416 0.31174573 -0.2524012 -0.34513474 0.001754862 0.022060813 0.21983457 -0.33757934 0.24262646 -0.042195264 -0.07491178 0.2534679 0.060630552 -0.08521141 0.10655789 -0.34303185 -0.06738167 -0.013528464 -0.37767032 -0.2607009 0.00587596 -0.10101975 -0.24608056 -0.09386534 -0.13120973 -0.078282796 0.009916319 0.10080837 0.4495071 0.33723226 0.3428378 -0.17926453 0.1323984 -0.13786313 -0.13728206 -0.07221238 0.24238445 -0.13954322 0.11153743 0.21556067 -0.2968908 0.10681085 -0.19406784 0.17077051 0.07168064 -0.02905844 0.06197317 -0.19829954 0.13844946 -0.46213138 0.15157579 0.1497607 0.2032083 0.020873364 -0.0801727 -0.1728135 0.36107594 -0.01398134 0.030820752 -0.19908085 -0.35673517 0.406055 0.03092229 0.30136707 -0.30810565 -0.058618944 -0.2336959 0.031101774 0.013467982 0.013486543 0.13015924 0.052896485 -0.192772 0.06867399 0.2842197 0.16289234 -0.30799145 -0.019922802 0.19108464 0.11588099 -0.33170512 -0.003193596 -0.048459772 0.09765285 0.14389446 0.21349783 -0.077892035 -0.13162535 0.28951177 0.04551848 0.21015485 -0.025293272 0.008235826 -0.1659543 0.16469221 0.049812358 0.1132806 -0.23264219 -0.18717843 0.003498034 -0.007808692 0.10170429 0.009742255
805 -0.067730814 -0.16323501 0.0143947 0.012415659 -0.030756038 0.12462311 -0.014035452 -0.093325965 0.13980974 -0.0954716 -0.2498351 -0.02346473 -0.07141805 0.07755106 0.08804137 0.32247216 0.2263751 -0.124749005 0.036676727 -0.1685013 0.08651555 0.3190461 0.07114704 -0.004332791 -0.1807724 0.47462568 0.27385277 -0.19137074 -0.41345987 0.12956753 -0.055268023 0.2465508 -0.28990924 0.17587765 -0.031842053 0.017930623 0.24495111 0.02461782 -0.05353663 0.13948151 -0.31782302 0.0077458434 -0.0071357395 -0.29892555 -0.2217036 -0.047524776 -0.12439699 -0.15868361 -0.19397464 -0.20632294 -0.032071635 0.0074363565 0.16442907 0.36601436 0.30117813 0.34889907 -0.17805415 0.1358853 -0.11126348 -0.2102969 -0.049462482 0.31365475 -0.18286517 0.10222058 0.21581444 -0.18635087 0.12021887 -0.104787804 0.25833598 -0.019677522 0.016664613 0.08164904 -0.11664978 0.11408513 -0.37837508 0.049102403 0.117096506 0.17134798 0.13371745 -0.10542646 -0.27195156 0.27096984 -0.13884777 -0.050797768 -0.20397933 -0.29092258 0.40581155 -0.016810456 0.24474457 -0.23442475 -0.07124711 -0.25554067 -0.09361657 0.015756726 -0.036543906 0.061341025 0.093180686 -0.2589987 0.10202215 0.28112623 0.15579925 -0.24100833 -0.08845094 0.30051315 0.14820984 -0.24361016 0.009604539 -0.006203539 0.10538248 0.15238303 0.19631954 -0.1740158 -0.08100166 0.25388196 -0.024537295 0.23926012 -0.0014459493 -0.07918286 -0.06341235 0.13014986 0.042755462 0.033793885 -0.23894714 -0.10656175 0.0120335575 -0.02013832 0.052442443 0.0069337445
74 -0.050978288 -0.25999555 0.03226763 0.024111232 -0.05031096 0.13364786 -0.011118766 -0.117330156 0.1306684 -0.04613269 -0.23852271 -0.040011667 -0.06696899 0.11405674 0.1479213 0.37236008 0.26522726 -0.10974778 0.02325031 -0.13830774 0.10386244 0.31977084 0.087788455 -0.020370562 -0.1639799 0.434007 0.26547456 -0.21759357 -0.3823177 0.10536967 -0.018310552 0.25328496 -0.28342304 0.19680758 -0.02150949 -0.012222268 0.20104907 0.007326003 -0.09166117 0.1346207 -0.29190966 -0.011542237 -0.01910202 -0.33091503 -0.22753882 -0.008772272 -0.05453311 -0.1650907 -0.18319458 -0.18057804 -0.066690534 0.02298541 0.1597191 0.41291225 0.3293768 0.3597218 -0.1486479 0.16181292 -0.12007467 -0.19945168 -0.054798137 0.29176083 -0.17390625 0.1194903 0.23968698 -0.21161053 0.09824735 -0.09226583 0.17663157 -0.004374241 0.022788446 0.054136943 -0.15877044 0.13240457 -0.45027977 0.0849304 0.1314474 0.17840376 0.09050447 -0.09774333 -0.26679385 0.3183517 -0.08583875 -0.019922785 -0.22385609 -0.2941236 0.40400422 -0.024344819 0.28925997 -0.27298048 -0.08782586 -0.2397109 -0.052970644 -0.002509474 -0.01068965 0.09132794 0.10729328 -0.20485805 0.11010242 0.2982859 0.13892497 -0.25973153 -0.10031312 0.3219915 0.15161571 -0.28238314 0.014419181 -0.01518883 0.11500198 0.17151281 0.23994131 -0.16484492 -0.12497199 0.28389686 0.009500515 0.23473762 0.0037340552 -0.08133463 -0.09216265 0.14322703 0.049215805 0.06279116 -0.21418385 -0.13658823 0.027110174 -0.02766374 0.058508698 -0.02581977
71 -0.017147474 -0.31563377 0.085665986 0.04721239 -0.032702558 0.14344172 0.011995213 -0.121953264 0.14074004 -0.083651386 -0.21889819 -0.06413476 -0.061434787 0.09111837 0.17623931 0.29770324 0.26007548 -0.1148555 0.09092081 -0.12533861 0.028918942 0.29563913 0.101619676 0.0124914255 -0.17808862 0.4434346 0.2993606 -0.22141343 -0.33564416 0.044053406 -0.013964547 0.23099329 -0.32596332 0.19836643 -0.014004373 -0.043764226 0.231314 0.063567124 -0.084157124 0.08845239 -0.309209 -0.029168792 -0.0306852 -0.31623784 -0.20328954 -0.02434133 -0.09059477 -0.18127842 -0.10778499 -0.14925915 -0.07876867 0.0011493274 0.13823864 0.3453511 0.2968988 0.3207917 -0.1667331 0.09234201 -0.118821464 -0.1027077 -0.05803569 0.22378889 -0.15363792 0.06161166 0.17437524 -0.2470309 0.10213933 -0.14302707 0.18671644 0.010779842 -0.005761012 0.040254004 -0.165681 0.08454327 -0.37899572 0.096507505 0.07386667 0.15165058 0.07829292 -0.09588471 -0.19652139 0.2971295 -0.085286796 0.010213945 -0.18593399 -0.30048954 0.3804614 0.0028985566 0.2264411 -0.25033164 -0.053103026 -0.2552323 -0.006734942 0.020876769 -0.01956328 0.10936009 0.07420569 -0.19641113 0.07942004 0.24706358 0.16092217 -0.26731455 -0.051765274 0.22662619 0.10260139 -0.2756627 0.0060625 -0.026600938 0.11584044 0.113722555 0.19510734 -0.11033415 -0.07977426 0.2508812 -0.010063148 0.20203957 0.01449172 -0.019186318 -0.059720453 0.15153597 0.03942554 0.07192701 -0.22729348 -0.12430328 0.03587131 0.032627493 0.06185005 0.006084319
474 0.8445167 -0.20780328 -0.23267122 -0.20857069 0.2711511 -0.0059652207 0.4518443 -0.29356825 0.64781916 0.09958866 -0.37209684 -0.19776723 0.18127535 0.14473788 0.7771769 0.21368094 -0.027087914 -0.5970952 -0.08492751 -0.80130786 -0.09273239 0.2972931 0.5960074 0.21543507 -0.17212619 0.49299642 0.5551306 -0.22876616 -0.7192412 -0.0710142 -0.335741 0.31016344 -0.31316355 0.40977067 0.16760744 0.69949615 0.82103527 0.37617263 0.109534636 0.062338524 -0.57288116 -0.101639085 -0.34965476 -0.3718107 0.5680386 0.04067525 -0.57097787 0.045923196 0.37900564 0.39441422 0.30518427 -0.54586077 -0.09994074 0.493802 0.59681475 0.09981367 -0.54501 -0.51748514 -0.5718624 0.24872218 -0.25289044 0.0011885379 -0.3497237 -0.36271086 -0.37302157 -0.37345767 0.0041644434 -0.010471251 0.7506885 0.38081923 0.12385399 0.25899398 -0.4404103 -0.041067675 0.12591077 -0.15288477 0.081287056 -0.25995383 1.0251719 0.085542604 0.08787826 0.28245574 -0.13503282 -0.44417965 -0.32495135 -0.9148892 -0.12515876 0.2698747 0.644436 -0.072543934 0.17021634 -0.5131084 -0.26147366 0.38595456 -0.29370216 -0.3767802 0.72542745 -0.52322835 0.48835874 -0.11072324 0.59718055 -0.66821975 0.12827311 0.60354865 -0.06457171 -0.74719214 0.3970005 -0.5172469 0.33837405 -0.62331903 -0.049173072 -0.04619065 0.3008458 0.99880856 -0.4768881 0.54207927 0.38075697 -0.4321933 0.7525128 -0.09461975 0.26256758 -0.36089173 -0.09575431 -0.13047077 0.20856418 0.1129969 -0.30742782 0.04944922
698 0.86369395 -0.16517708 -0.26435637 -0.21362622 0.2973751 -0.019851947 0.46257272 -0.29075104 0.6569195 0.12135945 -0.36376658 -0.19046603 0.1887612 0.13956743 0.7848746 0.20277052 -0.03980276 -0.615439 -0.115653075 -0.8249618 -0.07552491 0.2985435 0.61785847 0.22836958 -0.1361962 0.49371752 0.5586522 -0.2207106 -0.7304063 -0.07445699 -0.3599217 0.3021685 -0.29621074 0.39771545 0.16535 0.72797215 0.83263165 0.3821184 0.116095565 0.07948051 -0.5846708 -0.08260696 -0.36341643 -0.37123603 0.5843997 0.040008623 -0.58460516 0.07975248 0.3839487 0.42323455 0.32324073 -0.58057594 -0.1000943 0.4933523 0.59484285 0.09321035 -0.56082046 -0.53496796 -0.58370715 0.25960922 -0.24841039 -0.0064204307 -0.36599928 -0.3754085 -0.3917962 -0.35694355 -0.009824167 0.020576429 0.7720453 0.38427547 0.13142644 0.24871564 -0.43888032 -0.05419105 0.14174576 -0.16441078 0.10346098 -0.2804012 1.057477 0.11812046 0.1100033 0.26261008 -0.13711888 -0.4862387 -0.31298563 -0.93092424 -0.14383876 0.27401987 0.65210134 -0.063120574 0.18797366 -0.5184829 -0.28625146 0.3789048 -0.3020501 -0.4175159 0.7364747 -0.5268045 0.49299672 -0.13197058 0.6037686 -0.6860539 0.16421281 0.6082963 -0.060484063 -0.7474796 0.39963886 -0.52659863 0.33586675 -0.6515184 -0.0811838 -0.025733158 0.3138696 1.0120126 -0.47088924 0.5313494 0.37181434 -0.44812983 0.7858944 -0.114492476 0.28394777 -0.36803383 -0.057301547 -0.12601678 0.19776976 0.0938503 -0.30879754 0.037414946
498 -0.033187184 -0.21039167 0.038813405 0.009803066 -0.040259734 0.11100708 -0.0062158224 -0.09656611 0.13282771 -0.08627959 -0.22457965 -0.03506827 -0.053894654 0.069464505 0.116489954 0.2812133 0.20002083 -0.11208487 0.052704513 -0.14957236 0.04638305 0.29278877 0.07893323 -0.00661406 -0.18699412 0.41221792 0.25158274 -0.19840369 -0.35277718 0.09211464 -0.029350845 0.22180483 -0.27647203 0.17892183 -0.007495726 0.016008267 0.2261464 0.03647957 -0.04736963 0.09830797 -0.28251565 -0.018901106 -0.013730587 -0.2739773 -0.1821504 -0.03463801 -0.10833953 -0.16018961 -0.14697917 -0.18142195 -0.044911914 0.020276908 0.14090669 0.33845544 0.2890336 0.31246686 -0.15751137 0.106221795 -0.10781271 -0.16722912 -0.058612604 0.26193187 -0.15992206 0.08403884 0.17257044 -0.202964 0.106873184 -0.11447117 0.21366513 -0.007792335 0.009280729 0.07357883 -0.13290618 0.107278645 -0.33796036 0.062115073 0.0811523 0.14984 0.10491877 -0.110168785 -0.22887391 0.25963545 -0.107324004 -0.01672073 -0.18625617 -0.2710386 0.3507905 -0.010287342 0.23057142 -0.21164647 -0.0662489 -0.23448096 -0.055675287 0.032309044 -0.030873165 0.07881725 0.08512563 -0.21597208 0.09698806 0.24358138 0.14677602 -0.21153781 -0.10146897 0.2615181 0.106166154 -0.24544716 0.028386336 -0.007130204 0.10180547 0.1267041 0.18869819 -0.151169 -0.07996475 0.23879004 -0.03639067 0.22182247 0.011296167 -0.062650315 -0.057854608 0.12201657 0.03683722 0.028871363 -0.23212005 -0.10938463 0.02410475 0.009938851 0.03550018 0.01443306
932 -0.04561666 -0.19620179 0.023334341 0.0119959405 -0.02980467 0.121915415 -0.022827942 -0.089537196 0.1385921 -0.055186894 -0.22253649 -0.0076096044 -0.054020755 0.08937857 0.11250176 0.3299201 0.23559281 -0.11964684 0.0390612 -0.15320925 0.08097107 0.28987288 0.08172275 -0.017458992 -0.16117902 0.41036543 0.25137985 -0.18784828 -0.35779706 0.1109565 -0.037321813 0.22460476 -0.25610712 0.19174537 -0.024954475 0.012400626 0.22127655 0.022139318 -0.059189923 0.10790052 -0.3012014 -0.0060301446 -0.024343014 -0.29525173 -0.18884581 -0.030984875 -0.100249134 -0.1489253 -0.17440023 -0.17046921 -0.027992222 0.0024253963 0.14976765 0.3694818 0.28811523 0.30487737 -0.17418551 0.11451989 -0.10341977 -0.1888086 -0.04941418 0.2626187 -0.1805356 0.107620545 0.19392464 -0.18808123 0.095725596 -0.09406242 0.23648775 -0.002221071 0.018841498 0.07236281 -0.115714975 0.10347969 -0.36770645 0.056710243 0.10593631 0.14219047 0.12847461 -0.09522862 -0.24692929 0.27506325 -0.10691303 -0.037732873 -0.19433291 -0.27855057 0.35770452 -0.006502429 0.2541594 -0.2196611 -0.064775586 -0.22540003 -0.08811914 0.012924234 -0.03364832 0.05762743 0.098726794 -0.22499566 0.11377177 0.27836463 0.14518122 -0.24579695 -0.0994392 0.28226107 0.1268871 -0.26497528 0.03637157 -0.008816681 0.11115191 0.1401849 0.20462222 -0.15410922 -0.07484353 0.2631974 -0.029161107 0.23583333 0.01443898 -0.06458975 -0.03567911 0.095785856 0.028093383 0.028589027 -0.23200485 -0.109792456 0.022091728 -0.0382508 0.042393744 0.0033162073
40 -0.039581515 -0.36822957 0.103873216 0.054812856 -0.022854658 0.14261484 0.002017843 -0.1356185 0.14047572 -0.0807809 -0.21565309 -0.06330419 -0.068173684 0.07892334 0.20012407 0.3416382 0.29713368 -0.12165492 0.10088296 -0.10955877 0.06886004 0.34128505 0.09787593 0.00496426 -0.18353848 0.478012 0.32473937 -0.25383037 -0.35459375 0.024130858 0.0061681382 0.23684567 -0.35615113 0.23042893 -0.034749154 -0.08297668 0.24126077 0.06671591 -0.09225291 0.105043344 -0.3454183 -0.044332888 -0.023612615 -0.36667496 -0.25550938 -0.016921287 -0.09618194 -0.2161218 -0.11718439 -0.16167574 -0.094492525 0.0071980827 0.13888879 0.39777786 0.3211254 0.35134754 -0.18851407 0.115328245 -0.12543087 -0.11957704 -0.056721643 0.24994698 -0.15269132 0.08518582 0.20921981 -0.28002065 0.10133345 -0.16320889 0.18515463 0.015943246 -0.022675136 0.03805817 -0.17731678 0.111718334 -0.44251668 0.12755129 0.109404415 0.18838768 0.049841948 -0.085663855 -0.20603502 0.34611344 -0.06543553 0.018554864 -0.19023418 -0.33681342 0.4302628 0.010613795 0.25954297 -0.29058373 -0.057662535 -0.26113585 0.0038578617 0.014061462 -0.0007305211 0.124831185 0.057578966 -0.19776987 0.07006719 0.28355995 0.1624401 -0.30360565 -0.036261067 0.22152422 0.11725325 -0.30174637 -0.01525576 -0.027454017 0.11286386 0.14693506 0.21371742 -0.10353036 -0.102155715 0.2741794 0.021908851 0.211736 -0.010582368 -0.004131124 -0.10460602 0.17046307 0.053920068 0.10659248 -0.23637372 -0.15882327 0.021539852 0.011291122 0.09627434 0.008971906
867 -0.053958647 -0.40654254 0.12305621 0.047808804 -0.10049122 0.12499948 0.025893157 -0.16346212 0.13139367 -0.07346447 -0.20966415 -0.09290545 -0.069711916 0.12446919 0.2936418 0.39329636 0.2678224 -0.13307294 0.07375277 -0.06565986 0.11089514 0.4084255 0.08450378 -0.055742387 -0.22150877 0.4684844 0.3235319 -0.2907806 -0.41255873 0.0063030394 0.004529258 0.26403382 -0.3798943 0.2479657 -0.028852584 -0.07722446 0.26901242 0.06832894 -0.07927484 0.14821704 -0.30639037 -0.10472696 0.0011566633 -0.4014116 -0.33609372 0.028117824 -0.06664136 -0.29246128 -0.16051832 -0.12979625 -0.113679364 0.043389488 0.09425456 0.5178677 0.43675283 0.42797515 -0.13447343 0.17208625 -0.18779078 -0.19868611 -0.09850507 0.33010456 -0.12819132 0.11124181 0.29090288 -0.31110936 0.09999069 -0.20412612 0.15094742 0.1024309 -0.025060924 0.07169386 -0.25072083 0.18301456 -0.5470566 0.1599387 0.17649786 0.25882712 -0.03354998 -0.10167574 -0.18515168 0.4498375 -0.01744368 0.04178984 -0.21823367 -0.3885827 0.41113108 0.052405242 0.3477648 -0.35939983 -0.09174354 -0.2860633 0.06868693 0.05673425 0.02286951 0.1767744 0.07659921 -0.22798765 0.056774188 0.29869485 0.18907125 -0.3204929 -0.045095377 0.23925312 0.14124367 -0.39409593 -0.012513297 -0.011530392 0.08392822 0.15598753 0.28604373 -0.07879007 -0.1808808 0.34814873 0.08861062 0.26916185 -0.058873687 -0.05157231 -0.26192784 0.25753477 0.073867485 0.1754968 -0.22241232 -0.24712798 0.03894347 0.024908047 0.14181936 0.00586901
861 0.04518294 -0.32485995 0.06749338 0.0046603167 -0.031725425 0.13767904 0.051841736 -0.13386834 0.1131994 -0.02738781 -0.22488631 -0.10298072 -0.06221802 0.12358045 0.16189997 0.33644626 0.22112082 -0.046262138 0.027668994 -0.14525793 0.05802063 0.28353032 0.08686922 0.013332024 -0.21051607 0.40241036 0.2520418 -0.21153755 -0.3393198 0.10406558 0.07070646 0.28092936 -0.3152147 0.20226309 0.043229405 -0.048255414 0.088286206 -0.017833598 -0.12954397 0.09471908 -0.15415989 -0.013989961 -0.041652188 -0.29672122 -0.116617315 0.064236745 0.03474268 -0.10478068 -0.08748847 -0.20691696 -0.10451737 0.027049983 0.16088057 0.33274373 0.29646662 0.34156278 -0.095968746 0.1055233 -0.1251411 -0.0881112 -0.046602618 0.19014387 -0.10607618 0.07660433 0.22503062 -0.22066474 0.11684054 -0.056996565 0.0019766502 -0.012174391 0.039860986 0.016530495 -0.20268132 0.08545776 -0.43857303 0.11652175 0.050675634 0.12493609 0.07310812 -0.093480825 -0.24802859 0.34495872 -0.025774145 0.04925925 -0.24590153 -0.23364457 0.42072254 -0.07514909 0.24705292 -0.22627714 -0.10570855 -0.23602049 -0.020463651 0.006729302 0.002679306 0.12761056 0.14262748 -0.113843895 0.1448028 0.26585412 0.12695338 -0.19932072 -0.1936584 0.3774428 0.11460374 -0.2283404 -0.020823462 -0.06606478 0.17021178 0.18006255 0.23539326 -0.21839258 -0.14272702 0.27469864 -0.022360139 0.21533722 0.07148017 -0.09805403 -0.037395455 0.11489785 0.0778479 0.015589644 -0.14000915 -0.092658564 0.066139415 0.05175005 -0.00012503605 -0.13077219
185 0.25675294 -0.13505024 -0.0705301 0.2634489 -0.48113585 0.46454066 -0.11088773 -0.31562665 0.38381067 -0.4030248 -0.5411282 -0.3644466 0.53387994 0.8549939 0.29632744 0.11501214 -0.19263722 -0.0060607865 -0.07195121 -0.69078517 -0.4090179 0.11887159 0.68905354 0.22392933 -0.54846656 0.39138174 0.41532913 -0.1660022 -0.42012018 0.7261973 0.10116509 0.5937089 -0.27691057 -0.24453275 0.6090411 0.78985083 0.49543893 0.3588659 -0.18428898 -0.42834836 -0.5642021 0.2942467 -0.437554 0.21179657 0.62800246 -0.22159944 -0.14445245 -0.014362897 -0.6382447 -0.30515286 -0.18420897 0.052712396 0.56254447 0.7154631 0.5145265 0.6347806 -0.3414741 0.7546976 -0.48914143 -0.43027765 -0.021849647 0.5080113 -0.4998095 0.17575225 0.13492994 -0.1798903 0.6235478 -0.14550458 0.28617993 -0.12524508 0.17279418 0.41203845 -0.045959022 0.42894942 -0.4092909 -0.4310422 -0.16004154 -0.20011032 0.64616394 -0.7723495 -0.8043835 -0.16105017 -0.871248 -0.19063538 -0.7058433 0.188393 -0.17087491 -0.2356029 0.73672295 0.534162 -0.46149704 -0.50467265 -0.549572 0.37473255 0.1345705 -0.066524826 0.7240335 -0.1436393 0.25373408 0.10615033 0.20526674 -0.094029404 -0.29900578 0.6360211 0.43835837 -0.102949776 0.83600026 -0.114997014 -0.14510891 -0.24324903 0.16868652 -0.3947505 0.29600558 0.2363425 -0.5357579 0.49354002 0.83811694 -0.6956524 0.5516894 -0.0069028866 0.011735867 -0.04821141 -0.41959444 0.2682704 0.020069655 0.14414524 -0.44776177 -0.21396774
115 0.6421165 -0.42638153 0.0128782205 0.032612827 -0.059125308 -0.043356586 0.14376824 -0.26694465 0.42868188 -0.8367899 -0.85908675 -0.1064013 -0.11531809 -0.14698356 0.2011938 -0.12998398 -0.06353618 0.046922565 0.034341812 -0.80209285 -0.42629352 0.24994518 0.4671159 -0.07444963 -0.51259357 0.6548339 0.44596428 -0.6836613 -0.5800576 0.2266947 -0.012026004 0.3633802 -0.22829297 0.25042495 0.5250626 0.43336895 0.42675766 0.3905049 0.2674883 -0.08149653 -0.33002114 -0.19298726 0.28126553 -0.10269565 0.17212941 -0.395076 -0.66455406 0.20030998 0.01093552 -0.8123893 0.3392376 0.14834176 0.22666635 -0.098515786 0.054653157 0.040658917 -0.4435463 -0.31898242 -0.17103288 -0.19528422 -0.74414295 0.28563696 -0.90959567 0.16751993 -0.19661984 -0.7588063 0.34934288 -0.2899772 0.97535205 -0.59303594 0.26634642 0.2631468 -0.3105383 0.04793212 -0.022954604 -0.048821904 -0.69267863 0.13647293 0.7238041 -0.5771729 0.019158933 -0.04247308 -0.4996125 -0.21419112 -0.001423451 -0.2289483 0.43351716 -0.17815879 0.061245665 -0.17575428 -0.10811186 -0.41192725 0.081806265 0.2271732 -0.79286766 0.2548089 -0.018263724 -0.23224215 0.42303997 0.20499235 0.86444646 0.067346744 -0.9595186 0.88996935 -0.15020058 -0.19935472 0.5756923 0.27284944 0.49635988 0.22049001 -0.21774541 -0.7392278 -0.22631787 0.4570205 -0.7894951 0.40013793 0.40974823 -0.22873554 0.4677726 0.01007131 -0.016635204 -0.52853 -0.92752093 0.1481196 0.4613263 0.53915036 -1.034555 0.17060247
145 0.64899063 -0.41986728 -0.0034586384 0.02598817 -0.05978126 -0.036833916 0.14818293 -0.26289743 0.4222969 -0.8275238 -0.86305684 -0.101608984 -0.10560012 -0.13433897 0.21090595 -0.113555185 -0.057295054 0.036415096 0.027668763 -0.8103359 -0.4292278 0.25221846 0.4798964 -0.073377386 -0.517627 0.65715665 0.45035505 -0.68245023 -0.5853013 0.22907737 -0.0050353147 0.374566 -0.2290922 0.24545881 0.5319093 0.44592658 0.42109045 0.38925716 0.26503745 -0.08579874 -0.3319741 -0.19095014 0.2814763 -0.11024997 0.17419991 -0.38834363 -0.66428083 0.19879192 0.005438528 -0.80965805 0.3406857 0.14500533 0.22473231 -0.08561413 0.057897255 0.039766148 -0.4452304 -0.3049305 -0.16808182 -0.19711718 -0.7407132 0.29014155 -0.91273534 0.1697136 -0.19409671 -0.75546324 0.3469153 -0.28192997 0.97198194 -0.59062845 0.27613324 0.26166022 -0.3128287 0.053366538 -0.03905255 -0.054274365 -0.6815232 0.13747099 0.7329519 -0.57542616 0.013550975 -0.04446302 -0.5044777 -0.22964905 -0.011178473 -0.22192045 0.42907587 -0.1754574 0.076555885 -0.17298013 -0.109507345 -0.41762856 0.07317457 0.22480975 -0.7844997 0.2546929 -0.005368847 -0.23666164 0.42592356 0.20572285 0.8625068 0.06720651 -0.9542537 0.8992453 -0.1406533 -0.20652962 0.58388287 0.26625937 0.49523968 0.21936509 -0.21497111 -0.7359946 -0.2294266 0.46691182 -0.7833085 0.40778863 0.41034698 -0.23881605 0.4735506 0.014600004 -0.012909443 -0.5287395 -0.92399055 0.15003812 0.46468773 0.5257506 -1.0387659 0.17022625
542 0.3386895 -1.1627738 0.7112102 -0.094499156 -0.21089187 0.28690583 0.22685602 -0.13599713 0.4949721 -0.38830325 -0.31522423 -0.21627696 -0.03793479 0.15016179 0.6428809 0.030662779 -0.1544195 0.016057981 0.879217 -0.24277359 -0.83764285 0.3382173 0.086087726 -0.033707082 -1.162007 0.22591563 0.4614911 -0.5164063 -0.19733727 -0.2742774 0.28728124 0.33626258 -0.6036844 0.57793415 0.43685308 -0.010794488 0.3980649 0.6101285 0.027606366 -0.54038817 -0.16554996 -0.51928306 -0.3284135 -0.01489119 0.19705188 0.18484844 -0.4058736 -0.6343172 0.3901313 -0.10109441 -0.27381665 0.39043537 -0.020794434 0.13228703 0.55135906 0.04754534 -0.12088355 -0.5596999 -0.15020803 0.2848578 -0.4143075 0.031760905 0.055593085 -0.46775407 -0.21631585 -0.83989465 0.33021027 -0.8324695 0.20949721 0.39605087 -0.28943086 0.39792886 -0.39694196 -0.03239965 0.029972073 0.09977176 -0.79323643 -0.030122438 0.08681575 -0.7043619 -0.15461648 0.7173079 0.028121704 0.6773959 -0.15251282 -0.40528876 -0.07297374 0.31031737 0.048625335 0.22877133 0.0098596 -0.5036471 0.45091304 0.71184856 -0.18951154 0.68533903 0.23188287 -0.39305723 0.061152548 0.1866844 0.5490601 -0.121869385 -0.77193797 -0.017046021 -0.57637715 -0.7471969 0.4323015 0.016327776 0.34828216 -0.12493993 0.6143731 -0.25623205 0.16067912 0.37148502 -0.52919453 0.71930987 0.35666496 0.31690973 -0.021164645 0.3159688 -0.15108562 -0.045172837 -0.8421929 -0.41726977 0.30929494 0.97844905 -0.27309015 0.34868547
280 0.3320218 -1.1556921 0.70902586 -0.104108386 -0.21789798 0.2831851 0.21280992 -0.1357588 0.49566552 -0.39147645 -0.3248219 -0.21031518 -0.02514738 0.15813681 0.6319521 0.030175978 -0.16862969 0.01606972 0.87187576 -0.2519693 -0.83627206 0.33925912 0.09429452 -0.037620783 -1.1612391 0.20335801 0.46208557 -0.5046978 -0.20306276 -0.26980352 0.27304006 0.33904853 -0.5920123 0.56383896 0.45424855 -0.0006769614 0.40293446 0.60737646 0.019446757 -0.53574854 -0.16486922 -0.5069238 -0.33753806 -0.010077573 0.21063296 0.18152022 -0.39775622 -0.6355742 0.38495004 -0.10344578 -0.27453175 0.39842394 -0.012900893 0.13694113 0.556236 0.049243588 -0.108026735 -0.55208236 -0.13920431 0.2758113 -0.4193801 0.03749134 0.054152314 -0.4748132 -0.22490858 -0.8286247 0.325282 -0.82513016 0.20921862 0.3889604 -0.29899806 0.39651525 -0.4008348 -0.02045938 0.03531044 0.08586347 -0.80137897 -0.036302008 0.084711626 -0.7191304 -0.16242202 0.71095306 0.018480087 0.6717487 -0.16468689 -0.39422652 -0.080291055 0.30711102 0.043691248 0.22694051 0.017634982 -0.50491554 0.45197034 0.7067606 -0.18074901 0.68088406 0.23918465 -0.3898517 0.061773162 0.18096884 0.5363894 -0.11190956 -0.7759303 -0.017561419 -0.5782089 -0.7329914 0.43449703 0.008671043 0.34869385 -0.11903689 0.61983514 -0.25798702 0.16695464 0.36466426 -0.51957136 0.7161477 0.35447526 0.31124398 -0.017695839 0.31924653 -0.13783483 -0.0479475 -0.84066045 -0.41775298 0.31155607 0.98699343 -0.27517408 0.34973204
863 0.48056683 -0.65313125 0.32085955 0.2352523 0.22980413 0.62053794 0.50913143 -0.2483763 -0.08176946 -0.752247 -0.12422492 -0.4682679 -0.35286918 -0.18509139 0.19040097 -0.29257193 0.0825582 -0.56726867 0.9120503 0.00989578 -0.68047774 0.014569178 -0.20328246 0.28798997 -0.3489667 1.0187575 0.5209031 -0.014284783 0.06754183 0.072507635 0.3160395 0.2975624 -0.77125883 0.5621078 -0.16438353 0.03215474 0.79182655 0.4098766 0.05501295 -0.2673849 -0.80086404 -0.14210047 -0.07131467 -0.26146603 0.32341468 -0.12747002 -0.881423 -0.2618119 0.30676964 -0.06925329 0.081519924 -0.061884664 -0.032992996 0.17973286 0.19402303 0.5437784 -0.8202447 -0.2689404 -0.20296931 0.42939854 0.168305 -0.20169128 -0.2618352 -0.013932148 -0.15439653 -0.49426472 0.39934814 -0.73096216 0.5132968 0.24233814 0.34538957 0.20333105 -0.0045123096 -0.06575852 0.2200773 0.21364708 -0.038583383 -0.44766724 0.755442 -0.40010506 -0.6224981 -0.053815328 -0.44096887 0.22607349 -0.5635633 -0.37093204 0.7070048 0.00942695 0.22482444 0.28979635 -0.04272415 -0.4769223 -0.18707454 0.68911237 0.008922366 0.23887707 0.7091162 -0.48869312 0.4212622 0.34889695 0.56319004 -0.4253751 -0.10067352 0.3801566 -0.15299927 -0.9007061 0.25776777 -0.28056926 0.3285694 -0.5577729 -0.1879011 -0.19736479 0.632576 0.5424442 -0.89698976 0.52615094 0.5286359 0.23737252 0.5591484 -0.3400352 -0.57880986 0.21319658 -0.92626166 0.12182885 0.21543263 0.26077077 -0.34791884 0.5153228
829 0.46477813 -0.6572804 0.3342183 0.2385295 0.2396304 0.6301992 0.5120368 -0.24558954 -0.09502083 -0.7479397 -0.09968244 -0.45954144 -0.36455435 -0.19811887 0.1835084 -0.29223877 0.09119066 -0.5709351 0.9307768 0.03812928 -0.6777296 0.014963847 -0.22088763 0.29254165 -0.34267342 1.024734 0.51475495 -0.0014293599 0.088652626 0.053076267 0.3232812 0.29847553 -0.7842984 0.57389474 -0.18707971 0.0015012845 0.7885486 0.41451016 0.04676999 -0.26607242 -0.7976599 -0.14989707 -0.06970765 -0.27038988 0.3093634 -0.123973675 -0.8829134 -0.2678605 0.31848723 -0.05713318 0.082037784 -0.07078757 -0.04594803 0.177019 0.18323153 0.54544616 -0.8226482 -0.2807647 -0.20521371 0.44157895 0.18610837 -0.21799217 -0.2504007 -0.025066061 -0.15034355 -0.4964216 0.39495143 -0.74070466 0.5022082 0.26504293 0.34020665 0.19604391 0.007007689 -0.07024712 0.22335574 0.228822 -0.02601157 -0.4518024 0.74479145 -0.38975376 -0.62407225 -0.043165337 -0.42411003 0.24108984 -0.5589413 -0.37685695 0.7125804 0.015655136 0.21658896 0.29216674 -0.03617236 -0.4805894 -0.18689908 0.6889149 0.01564282 0.24568668 0.70322114 -0.49349445 0.40854734 0.35858256 0.5619512 -0.43042457 -0.08302306 0.34938255 -0.16069075 -0.91191113 0.23762403 -0.28301084 0.31455404 -0.5621641 -0.18537413 -0.18145368 0.64238936 0.5360946 -0.8912797 0.51836234 0.5203717 0.2546705 0.5541299 -0.34133172 -0.58595854 0.22769421 -0.91747296 0.11459138 0.21826231 0.24582398 -0.31605944 0.51771927
98 0.24680614 -0.49510646 0.052347854 0.014033247 -0.04427049 0.14935695 0.17785898 -0.21477154 0.06445372 0.038602248 -0.19532035 -0.23865919 -0.051459204 0.20506632 0.24075371 0.18690468 0.18066221 0.07563548 0.0024939552 -0.16258313 -0.108803205 0.107113734 0.17678833 0.028240982 -0.24009752 0.24775042 0.20739354 -0.23105611 -0.14193693 0.08107391 0.20118599 0.37618592 -0.24506104 0.19862604 0.22145371 -0.022219079 -0.07061583 0.01541587 -0.21112347 -0.064491585 0.032150336 -0.025795788 -0.08487043 -0.22684126 0.1652213 0.16638727 0.2551892 0.023663053 0.060246762 -0.17259634 -0.1520153 0.07379648 0.1554376 0.18429334 0.24683134 0.2964572 0.0121903485 -0.02318865 -0.11376603 0.13715176 -0.049122814 -0.020674461 -0.08347591 0.0014333884 0.118510656 -0.18829079 0.07151408 0.1000572 -0.28710172 -0.08092818 0.12565032 -0.06662276 -0.26925483 0.013540649 -0.33807468 0.12026544 -0.13923828 0.011290476 0.08119452 -0.16333811 -0.19525243 0.26626086 0.035742886 0.10922311 -0.3020129 -0.038402572 0.31734863 -0.19148494 0.21203917 -0.12901326 -0.1986846 -0.17820771 0.041989177 0.04689499 -0.029023804 0.18116254 0.24246372 0.11045089 0.2332078 0.21615322 0.10095444 -0.06576414 -0.3827173 0.5414539 0.00681515 -0.21134594 0.06716721 -0.10357279 0.28374282 0.11506343 0.22808741 -0.30813664 -0.16310418 0.25856674 -0.124993764 0.16336931 0.25087336 -0.14384536 0.16680904 0.02488238 0.049308866 -0.046919577 -0.057473067 0.019290812 0.22390428 0.1459333 -0.2089419 -0.30573267
113 -0.06585745 -0.35997987 0.12263785 0.07216755 -0.02200485 0.13609444 -0.03439593 -0.12196842 0.16554393 -0.08749367 -0.21006459 -0.04867002 -0.0467029 0.084647976 0.21520157 0.35480097 0.30580512 -0.15869908 0.1290063 -0.10682762 0.085427016 0.36465633 0.098692 -0.00036300824 -0.16682373 0.48508105 0.34972772 -0.2626887 -0.36221403 -0.017647535 -0.010579367 0.20408668 -0.3689324 0.23787011 -0.059388664 -0.07781142 0.3120312 0.097456746 -0.08410085 0.10335015 -0.42119297 -0.06720195 -0.010076733 -0.38357493 -0.30649692 -0.0392979 -0.14461832 -0.275548 -0.10995646 -0.13252124 -0.08313595 -0.012267889 0.12579203 0.44397938 0.3378801 0.34784493 -0.22053915 0.14254561 -0.13236563 -0.14017959 -0.06487307 0.26539877 -0.14394791 0.09406451 0.2131382 -0.30654135 0.114425205 -0.22686519 0.25749803 0.06085243 -0.05504184 0.06146427 -0.179846 0.13223118 -0.46151122 0.13566121 0.1618074 0.22188006 0.024021465 -0.07967442 -0.1799976 0.33131075 -0.0613418 0.015773965 -0.18324752 -0.39309227 0.41968775 0.05203307 0.28609967 -0.32185623 -0.04788692 -0.2455935 0.018743817 0.02082656 0.014901487 0.1228025 0.030817779 -0.24134815 0.041780636 0.27562284 0.17744093 -0.34549636 0.042448685 0.13469492 0.12462488 -0.33924294 -0.005102559 -0.03831192 0.07694502 0.12418103 0.20361963 -0.050298303 -0.08797228 0.2743233 0.04846645 0.21343426 -0.04560114 0.04553194 -0.16412117 0.19156174 0.04218822 0.1321218 -0.26914537 -0.20608151 -0.0178601 -0.0023282114 0.13927718 0.057265513
267 0.2276319 -0.5104122 0.05259308 0.020268608 -0.064583726 0.16365097 0.15600581 -0.20493981 0.07258364 0.014005696 -0.20904896 -0.23719524 -0.04556928 0.20984365 0.21607684 0.1979448 0.18607238 0.0728606 -0.0026138707 -0.1552339 -0.10820696 0.12935454 0.16088364 0.040438145 -0.25073555 0.24895786 0.19352603 -0.22938754 -0.15861398 0.10133624 0.2010575 0.3696899 -0.2554456 0.1971364 0.20471604 -0.02849102 -0.0692545 0.00030441425 -0.20485951 -0.04153703 0.016548913 -0.01649958 -0.06831335 -0.22999837 0.13836685 0.15889263 0.249933 0.006347411 0.033860892 -0.18057331 -0.16598949 0.091347806 0.14964703 0.21294276 0.26979357 0.3092575 0.017641017 0.021584595 -0.104797885 0.101485096 -0.0490532 0.011273982 -0.08196129 0.0057691173 0.13658549 -0.20618747 0.08439695 0.089596264 -0.27474958 -0.086290486 0.120137766 -0.05525518 -0.25918987 0.040777728 -0.34300166 0.120513186 -0.118210815 0.024719622 0.08065294 -0.19235781 -0.2312001 0.27622297 0.02761971 0.11310207 -0.32355705 -0.041877624 0.3521644 -0.20811579 0.22492082 -0.13752484 -0.20227066 -0.16952819 0.045108777 0.042041495 -0.026201077 0.19096592 0.23808236 0.1013802 0.20843361 0.22708693 0.089340374 -0.06296505 -0.37758487 0.5445298 0.024705645 -0.20750722 0.06593192 -0.10030008 0.28621903 0.13787667 0.23311132 -0.32590032 -0.17765586 0.23681584 -0.11147028 0.16527729 0.23343955 -0.1448948 0.14347504 0.04818816 0.036981773 -0.046624187 -0.08458229 0.009505417 0.21121484 0.14977251 -0.20026295 -0.28631797
524 0.015028833 -0.37779862 0.10243918 0.039137635 -0.079457 0.112768166 0.005440124 -0.1499098 0.11520293 -0.047201283 -0.17979129 -0.09774258 -0.017161226 0.1403208 0.2610896 0.34816724 0.2212691 -0.111780405 0.048216917 -0.08909936 0.08310792 0.3248692 0.09593057 -0.03686037 -0.19120781 0.36961234 0.26871476 -0.24561052 -0.3334492 0.015059319 0.050335784 0.22470056 -0.28948188 0.20874499 -0.0009337877 -0.038774602 0.22518566 0.052699294 -0.084093146 0.09338798 -0.26670003 -0.076493695 -0.009645443 -0.33630893 -0.21828838 0.037775334 -0.051587112 -0.22901052 -0.113468595 -0.107839935 -0.08273211 0.029169405 0.07077955 0.45770457 0.35463187 0.33869222 -0.12646762 0.15054664 -0.16454643 -0.14374311 -0.082814194 0.23806705 -0.11685044 0.12151133 0.22991496 -0.27110696 0.11110732 -0.16714577 0.1064662 0.100482605 -0.0018070845 0.0750062 -0.21712829 0.16144796 -0.4703707 0.13697486 0.15403917 0.18206865 -0.003910466 -0.10186835 -0.16676903 0.35332918 0.0071775913 0.03518345 -0.22179443 -0.31060645 0.32668304 0.03126749 0.34789523 -0.2769199 -0.09311143 -0.21628478 0.044894 0.049778633 0.017808532 0.13882418 0.100395866 -0.16047236 0.08481182 0.2570051 0.14858164 -0.26667663 -0.06346754 0.23262933 0.12491223 -0.33102772 0.026425518 -0.052206483 0.07853116 0.123010844 0.22304502 -0.085932955 -0.14465882 0.3126852 0.050755754 0.2287152 0.00958673 -0.056297954 -0.18701959 0.16415872 0.0628786 0.11845283 -0.19792685 -0.18261728 0.025227582 -0.0032116878 0.07418155 -0.02364424
458 0.16259387 -0.38783 0.053060047 0.016669495 -0.051446095 0.13635546 0.10102827 -0.1645677 0.08811394 -0.018613297 -0.17962572 -0.16452879 -0.026710507 0.16468944 0.20329122 0.17655991 0.14395563 0.0054358137 0.029309437 -0.14770551 -0.07352987 0.13927773 0.13702427 0.029068004 -0.2178235 0.24681905 0.20248796 -0.19833022 -0.18266086 0.07625164 0.12008089 0.282398 -0.22632486 0.16306503 0.13468821 0.007822744 0.046241283 0.039435934 -0.13267614 -0.027635861 -0.07171721 -0.025687762 -0.059938103 -0.19187436 0.06839647 0.089516975 0.10359774 -0.043203693 -0.0030164754 -0.13022424 -0.10345194 0.04768471 0.11573584 0.22524758 0.24101608 0.25730643 -0.052237384 0.024883818 -0.10740134 0.03934265 -0.0584227 0.05912392 -0.09775089 0.016943995 0.11357776 -0.18947951 0.09171464 0.0056121266 -0.09691315 -0.026881719 0.06988829 0.0022030151 -0.1991353 0.04892994 -0.2883756 0.080813885 -0.05447711 0.034325156 0.09129904 -0.1587694 -0.18269157 0.22529916 -0.019316632 0.06595022 -0.2546532 -0.10374941 0.26393396 -0.10900407 0.22145016 -0.113379255 -0.13886078 -0.17317869 0.011996768 0.058655113 -0.02386645 0.13544258 0.18558285 -0.00068285374 0.1545158 0.19153796 0.11262003 -0.10639233 -0.25032467 0.38025197 0.034980595 -0.21278216 0.07811363 -0.07787842 0.19515345 0.08711709 0.18195155 -0.21541613 -0.106961384 0.22401136 -0.09800364 0.16575652 0.17269807 -0.10699101 0.091442496 0.04757929 0.034792397 -0.01268923 -0.1204533 -0.029204736 0.13301913 0.10135356 -0.12579134 -0.15932521
320 0.14719957 -0.43919054 0.063442774 0.026212567 -0.04629411 0.15212552 0.11148481 -0.17650938 0.08643256 -0.0019286734 -0.20262243 -0.1671818 -0.06275251 0.16430138 0.2005376 0.25658724 0.20765755 0.024729671 0.011927381 -0.13005985 -0.023352582 0.19144686 0.1268324 0.016665062 -0.21641633 0.31273472 0.2167804 -0.22061242 -0.21603902 0.08637921 0.14224924 0.3228158 -0.28032136 0.20329937 0.13053069 -0.054718383 -0.005596052 -0.0037891793 -0.17289168 0.017729715 -0.056328095 -0.023266718 -0.04778091 -0.26117924 0.014153713 0.121064104 0.15885916 -0.04219696 -0.014262961 -0.1845901 -0.13457975 0.055326365 0.15607518 0.26042208 0.27113143 0.32265615 -0.036957487 0.04979009 -0.119509004 0.02443944 -0.05559491 0.07368843 -0.09687633 0.04196515 0.17873581 -0.213567 0.0847457 0.02217716 -0.15942387 -0.052737143 0.077642 -0.033887513 -0.23363693 0.05638089 -0.39187756 0.12618329 -0.04613474 0.070642166 0.06177428 -0.13681483 -0.21699956 0.3099247 0.011369406 0.09151131 -0.2771582 -0.122941054 0.38056135 -0.14579768 0.22260748 -0.1792009 -0.15647833 -0.19426432 0.019423608 0.020468758 -0.012671735 0.16603081 0.18324834 0.015283695 0.17511666 0.24580497 0.1151506 -0.13039674 -0.28709337 0.4514697 0.059216775 -0.21168314 0.016625233 -0.07919042 0.22451195 0.16054332 0.22599055 -0.25839192 -0.16891913 0.24798806 -0.061686307 0.17410436 0.1495715 -0.112066135 0.05318982 0.079466775 0.057921056 -0.0022751414 -0.093746655 -0.036220532 0.14856648 0.09623037 -0.10564156 -0.22108883
94 0.12686092 -0.41401428 0.09254391 0.01353638 -0.076143526 0.12632827 0.04939706 -0.15397926 0.084943704 0.012373607 -0.17919369 -0.14823164 -0.0003030478 0.1998832 0.22271678 0.33078882 0.17755957 0.009400971 0.017886074 -0.12303809 0.020179566 0.23179974 0.10599284 -0.008411613 -0.23533529 0.27212077 0.20534073 -0.21549928 -0.25059715 0.087640285 0.16931023 0.26370242 -0.2463037 0.19579571 0.08657415 -0.038986586 0.017852731 -0.019365061 -0.15106058 0.027467577 -0.075426705 -0.041579474 -0.04740328 -0.24906923 -0.03022841 0.122727826 0.10858112 -0.10479612 -0.046969276 -0.16477506 -0.118492715 0.063741714 0.105435915 0.34543893 0.29097417 0.29017398 -0.03901263 0.12205218 -0.12927851 -0.05476549 -0.052868985 0.119786546 -0.06114674 0.09651048 0.21260616 -0.21707995 0.13061258 -0.041239228 -0.13027899 0.03252612 0.047446594 0.022729738 -0.22326972 0.11470731 -0.4517135 0.12852073 0.039094307 0.09777838 0.011689066 -0.13276927 -0.1990867 0.32194215 0.056963075 0.09586055 -0.27419233 -0.15636197 0.3131251 -0.09089166 0.3030951 -0.17566918 -0.153529 -0.16641276 0.023587747 0.027364505 0.026939744 0.15252952 0.16582178 -0.013151452 0.1556741 0.24807493 0.10306696 -0.14124684 -0.24963242 0.37403083 0.1008904 -0.22848725 0.03677423 -0.09932982 0.16872545 0.17588225 0.24508774 -0.21383108 -0.18179405 0.26868668 -0.012475758 0.20303082 0.14112563 -0.11284137 -0.054452952 0.083587825 0.07600482 0.016916227 -0.11303209 -0.08730234 0.08018443 0.049735606 -0.056522384 -0.19105075
764 0.07377019 -0.37492102 0.09754592 0.02708419 -0.05709306 0.10790582 0.00030764463 -0.1373972 0.1144727 -0.056071863 -0.17530975 -0.08976322 0.0040459814 0.1280031 0.22899555 0.3027752 0.20980431 -0.086648725 0.056483 -0.13690388 0.030668054 0.27812314 0.115788266 0.00638119 -0.19097078 0.33511516 0.25364244 -0.22688425 -0.2974838 0.043146525 0.074128695 0.20137766 -0.26411816 0.21741477 0.020706588 -0.013157649 0.19307382 0.04455028 -0.08586342 0.039300494 -0.2581072 -0.066427104 -0.029731238 -0.2874093 -0.11773774 0.035126843 -0.06879763 -0.1795032 -0.059887875 -0.11826924 -0.07829776 0.013351597 0.07434762 0.3950772 0.2890266 0.26889592 -0.15100385 0.10639677 -0.13028392 -0.10199141 -0.077723145 0.17901203 -0.1347683 0.10393087 0.17046697 -0.2666162 0.13144751 -0.15322527 0.10444727 0.0767582 0.0032468634 0.068320654 -0.19755505 0.11558498 -0.40566677 0.10503384 0.08528871 0.13422976 0.06278083 -0.11674526 -0.1583671 0.30458805 -0.0012569532 0.032726683 -0.22090648 -0.27526745 0.31356433 -0.009782996 0.31828883 -0.20918855 -0.07202015 -0.19361857 0.01702438 0.031601135 0.006769148 0.12299104 0.119104706 -0.1278684 0.11055984 0.24302866 0.15976627 -0.23265944 -0.121369615 0.2297558 0.09477836 -0.28769165 0.071152754 -0.086553834 0.11896393 0.11171284 0.19814678 -0.11649831 -0.10467145 0.2842758 -0.02606632 0.22823574 0.068232745 -0.051546663 -0.07536056 0.09962577 0.0529106 0.039616518 -0.21137641 -0.11545655 0.036235474 0.019581422 -0.0035479127 -0.024357889
865 -0.005729326 -0.37449995 0.10578414 0.042615235 -0.08424202 0.12441424 0.026669508 -0.15224423 0.12656392 -0.06387906 -0.20326488 -0.10201658 -0.051373545 0.12739912 0.25719047 0.3418942 0.23636967 -0.11527397 0.059020363 -0.08979047 0.07183763 0.34409398 0.100703925 -0.030738732 -0.2064232 0.41076496 0.2840287 -0.25299534 -0.35937703 0.020875815 0.020079713 0.24677469 -0.3241518 0.2170024 0.0072926986 -0.039015017 0.23466827 0.060247265 -0.08395436 0.10872469 -0.2699446 -0.0782367 -0.0103751 -0.34468734 -0.23838556 0.025447631 -0.04889811 -0.22768356 -0.12806481 -0.11787386 -0.08897405 0.035424087 0.09209858 0.44358113 0.37450346 0.37333235 -0.12357098 0.14015539 -0.16672334 -0.14944178 -0.08922515 0.26228198 -0.12848714 0.10165044 0.2308706 -0.26710272 0.09512114 -0.16335618 0.11901045 0.0810587 -0.0042601377 0.065805435 -0.21810482 0.15600677 -0.4688748 0.13301486 0.13482149 0.1907046 0.0041033793 -0.10716996 -0.1884353 0.36872697 -0.030123329 0.03217154 -0.2184521 -0.31992424 0.3570395 0.028466657 0.31727156 -0.28904766 -0.09275465 -0.24452037 0.045381997 0.05184943 0.011953041 0.14695142 0.103446364 -0.1865622 0.08430711 0.26052532 0.15949197 -0.26845017 -0.070365876 0.25994262 0.123655416 -0.3353524 0.01439513 -0.029605376 0.0882578 0.12608404 0.23653372 -0.09729427 -0.14409153 0.31692454 0.046658855 0.23743296 -0.0026695482 -0.061596252 -0.17740595 0.19600523 0.056149684 0.12975366 -0.2049851 -0.18325529 0.043529756 0.02268977 0.08362248 -0.012687905
460 -0.026284844 -0.27422258 0.05980388 0.027715074 -0.022604723 0.12733746 0.015248707 -0.11588139 0.12248501 -0.0595569 -0.2113214 -0.04859631 -0.07039985 0.07919271 0.15735 0.30917972 0.2529471 -0.100030355 0.053989068 -0.12459299 0.063780315 0.2942915 0.09048752 -0.007061227 -0.17264925 0.43347397 0.27883455 -0.2191534 -0.3365482 0.06768254 -0.0071840473 0.23721673 -0.30531588 0.19787034 -0.015312653 -0.04248569 0.20105034 0.035575267 -0.083663076 0.10458342 -0.2759724 -0.031952534 -0.020733546 -0.31312338 -0.20355858 -0.011348742 -0.06552315 -0.15588635 -0.13592881 -0.16561116 -0.06274036 -0.00060108566 0.13741721 0.34911257 0.28976646 0.32574967 -0.15845601 0.09769206 -0.116391495 -0.1250984 -0.056956843 0.23235548 -0.1480268 0.082667485 0.20066185 -0.21765783 0.08857286 -0.10625324 0.16996819 0.003675382 0.015699472 0.03511247 -0.1558676 0.08666961 -0.3969533 0.090211 0.08760027 0.15387109 0.08070115 -0.08724114 -0.20595074 0.3061498 -0.077304125 -0.00040348386 -0.18331519 -0.28469238 0.37790745 -0.008212983 0.23992245 -0.24973749 -0.07329283 -0.24498226 -0.03442246 0.011809701 -0.025682868 0.09369574 0.074129246 -0.18641126 0.096062325 0.25662506 0.1547937 -0.25134134 -0.07979815 0.26601344 0.12151533 -0.25914448 -0.0049306164 -0.01328401 0.11400863 0.13652459 0.20115398 -0.12219197 -0.09638548 0.25867778 -0.003957118 0.203529 0.00416379 -0.04887109 -0.0576297 0.14020179 0.049064003 0.07091783 -0.19662586 -0.117314495 0.044643503 0.0062953364 0.06642619 -0.023579564
72 0.011055369 -0.28021702 0.05642575 0.0047461297 -0.04231659 0.14627369 0.03185035 -0.124718785 0.11259784 -0.050924353 -0.23856574 -0.09163922 -0.051389255 0.13174896 0.12020016 0.3441911 0.22271773 -0.038921334 0.035565287 -0.14886501 0.062939495 0.30092162 0.079328895 0.013058423 -0.22248879 0.4416604 0.26655948 -0.20530285 -0.37854552 0.13914844 0.060926884 0.28311563 -0.32303837 0.18989438 0.032793134 -0.028045554 0.10080629 -0.026932664 -0.12826018 0.111945175 -0.17454636 0.008835372 -0.025813041 -0.28731838 -0.14013845 0.037311267 0.012481555 -0.11922017 -0.13980551 -0.23985259 -0.11212025 0.04524185 0.17536268 0.34166047 0.30100736 0.36559117 -0.10696467 0.1313807 -0.12249748 -0.1255888 -0.042642068 0.2303367 -0.1253209 0.08814975 0.242514 -0.21312962 0.1411165 -0.061022893 0.03354228 -0.029907953 0.039013408 0.02988811 -0.17764807 0.10425981 -0.44935566 0.09891383 0.05842483 0.12916987 0.08776386 -0.11866955 -0.29759496 0.3279658 -0.064364746 0.039544094 -0.26848993 -0.2282415 0.4460473 -0.09291578 0.24866737 -0.20032014 -0.11952625 -0.24428499 -0.062138125 0.0043838145 0.0077650733 0.11054009 0.14611018 -0.14223087 0.13209519 0.2847867 0.12502564 -0.18606688 -0.20404385 0.38452867 0.13450609 -0.20629813 -0.015370277 -0.04579852 0.15331492 0.19465096 0.23986356 -0.23369597 -0.13346411 0.2580923 -0.034776323 0.22863276 0.08037831 -0.115846775 -0.041952997 0.12487011 0.071819596 0.020993086 -0.16741689 -0.08105312 0.055094846 0.036526382 0.0022589823 -0.11798132
269 0.0417364 -0.3462575 0.09055069 0.040886488 -0.053237945 0.1297012 0.017454263 -0.13161968 0.117280595 -0.062283143 -0.17867099 -0.09579329 -0.02079873 0.11941052 0.2084142 0.2829231 0.20306665 -0.09587214 0.07159788 -0.11101596 0.031907175 0.26771334 0.096479245 0.006927053 -0.18169092 0.35098124 0.25728315 -0.20546012 -0.28586745 0.03614608 0.0540524 0.2148978 -0.27745754 0.19885148 0.013381809 -0.019232407 0.20235647 0.060346544 -0.08517307 0.046596248 -0.26419178 -0.043563846 -0.040338058 -0.28419566 -0.12711811 0.028118026 -0.06726257 -0.18413459 -0.0743564 -0.11376951 -0.07745933 0.02160002 0.096579105 0.37827477 0.29782805 0.29674965 -0.14138152 0.114092395 -0.13588056 -0.09893789 -0.05744656 0.19006263 -0.11648778 0.08312628 0.16873203 -0.24748608 0.12110222 -0.15400325 0.09928412 0.063275285 0.0024159423 0.068726845 -0.18017253 0.12460671 -0.37359107 0.10688664 0.09154308 0.12396805 0.067329794 -0.107573226 -0.18792255 0.2880119 -0.029765906 0.03888 -0.22338843 -0.27167785 0.31642535 -0.0028002423 0.28202584 -0.20271657 -0.07818771 -0.20180933 0.0063081407 0.04561224 0.0102405725 0.12149868 0.11950602 -0.14185417 0.09088566 0.2294715 0.13781928 -0.22965278 -0.0737904 0.22362271 0.088456646 -0.28504983 0.041427985 -0.06827104 0.10337681 0.09759425 0.19118993 -0.11395995 -0.08775212 0.26199117 -0.014145654 0.2137325 0.057656243 -0.04216118 -0.08404038 0.114906155 0.040158063 0.06350431 -0.20015281 -0.12399814 0.028300721 0.025496863 0.028889306 -0.02060853
955 -0.01652828 -0.3465228 0.10133324 0.04274339 -0.06358159 0.12954046 -0.01900343 -0.121146545 0.13052885 -0.0640608 -0.19419564 -0.07141325 -0.0368251 0.11177279 0.19979475 0.32946533 0.23529638 -0.11065741 0.073369876 -0.108749054 0.05718684 0.3032335 0.08673271 -0.015066136 -0.19098379 0.36597747 0.26888508 -0.22503395 -0.32510552 0.041448064 0.015251469 0.2146108 -0.28622264 0.20219627 -0.0015575746 -0.029283183 0.2248749 0.05489468 -0.078074805 0.07286153 -0.29520538 -0.048431575 -0.03371697 -0.31236202 -0.19112025 0.0051875194 -0.07382955 -0.21897088 -0.119267486 -0.12821183 -0.083906144 0.03330713 0.114880554 0.41503367 0.32161808 0.32392257 -0.146004 0.14572237 -0.11580368 -0.1530348 -0.07045773 0.2398141 -0.13608176 0.09969363 0.19485249 -0.24803086 0.1135832 -0.16115847 0.1468975 0.058051873 -0.022550227 0.079116546 -0.16897021 0.13762364 -0.41514513 0.10748028 0.11417623 0.16728327 0.040760543 -0.11401222 -0.20568949 0.3140279 -0.04565093 0.03345874 -0.21621804 -0.29846022 0.34936243 0.018188633 0.2823165 -0.24869235 -0.07394635 -0.21836756 0.014693526 0.03511315 0.0055946917 0.12471898 0.083975144 -0.1769286 0.07155793 0.25963715 0.13208954 -0.24520731 -0.059105136 0.20812383 0.10413286 -0.29804674 0.035641007 -0.042531464 0.09584962 0.12661122 0.22132735 -0.113573186 -0.105417155 0.25916153 0.017622953 0.22418857 0.0084971 -0.027468069 -0.13098238 0.14965765 0.033171758 0.07952522 -0.23220575 -0.15320688 0.008440528 0.013537457 0.068037935 0.00581248
466 -0.030245697 -0.36875522 0.1251111 0.069542035 -0.02376703 0.1304724 -0.026476668 -0.10926564 0.15698397 -0.09398761 -0.20041518 -0.055924647 -0.034300927 0.08795045 0.2125998 0.31344187 0.2670052 -0.13414012 0.14204422 -0.11413716 0.033383377 0.32751256 0.094620295 0.000446948 -0.18940575 0.43386304 0.3249197 -0.25351575 -0.3186459 -0.017881755 0.015893731 0.20339303 -0.34442347 0.22784069 -0.031504184 -0.057565887 0.28284886 0.10128623 -0.08603592 0.05993523 -0.3786855 -0.06637918 -0.023835246 -0.33576515 -0.24847543 -0.029587394 -0.13889427 -0.25674033 -0.088490896 -0.13050705 -0.0760677 0.005939493 0.11735779 0.39761713 0.30160958 0.31119248 -0.20207143 0.114602834 -0.11028314 -0.11357605 -0.064998314 0.22542459 -0.13264215 0.08681829 0.18011118 -0.29403523 0.12541158 -0.22221738 0.22553873 0.05577151 -0.04751453 0.060742386 -0.17680523 0.107291855 -0.413948 0.1303293 0.10383906 0.18390688 0.03203481 -0.10602119 -0.1712768 0.30737475 -0.05863421 0.035836156 -0.17228687 -0.34302396 0.37794504 0.04701618 0.25141802 -0.27102196 -0.050860394 -0.23436621 0.029091671 0.026964217 0.0034903418 0.13242386 0.033094082 -0.20522036 0.060301997 0.25323606 0.16841665 -0.29647347 -0.014659644 0.13171408 0.08592896 -0.30831116 0.029832447 -0.03828969 0.09454542 0.11546347 0.1886759 -0.05852003 -0.07999744 0.24252205 0.013445156 0.19239758 -0.015174905 0.048219968 -0.11689168 0.16062288 0.032649122 0.103863485 -0.26330835 -0.17838769 -0.0068040933 0.025377627 0.08257497 0.051853962
532 0.012190477 -0.27548444 0.049565576 0.009575075 -0.06408572 0.10404479 -0.020933423 -0.11214978 0.1172555 -0.040864866 -0.2071662 -0.061604857 -0.017097564 0.12653527 0.16134387 0.31960055 0.20022245 -0.08646743 0.028084328 -0.14191654 0.055366673 0.27551678 0.092613876 -0.01682584 -0.18257639 0.3330635 0.21925366 -0.18813697 -0.3317915 0.08877279 0.013897523 0.20544772 -0.22090155 0.17667948 0.00433937 0.014950751 0.16339976 0.0139537845 -0.07568485 0.08600539 -0.22848319 -0.020650836 -0.02822074 -0.26348582 -0.1394694 0.013636465 -0.04565967 -0.1626639 -0.13221885 -0.1473428 -0.059905488 0.032899614 0.10875789 0.36462408 0.29482076 0.27569842 -0.11715048 0.139845 -0.10112996 -0.1591084 -0.052031975 0.23829329 -0.13090247 0.09618641 0.18787083 -0.19959329 0.107971966 -0.08383616 0.12389475 0.019088004 0.008558915 0.07069164 -0.1544998 0.120054066 -0.3778817 0.06851653 0.101206765 0.13802294 0.07583898 -0.12011202 -0.22604541 0.26801455 -0.048366956 -0.0040836595 -0.22071163 -0.24114682 0.30915064 -0.017027015 0.28715092 -0.20477024 -0.08298649 -0.19640818 -0.029247923 0.01627136 0.00030447255 0.096212104 0.113266885 -0.15813011 0.10445538 0.2580588 0.121534705 -0.19599406 -0.11852386 0.27530217 0.10761404 -0.25306535 0.047318064 -0.044566378 0.1197022 0.14033832 0.22604181 -0.1577841 -0.10838118 0.25674456 -0.0054472405 0.2228453 0.047748327 -0.08103216 -0.07651386 0.099715985 0.044242747 0.027266415 -0.2073906 -0.122845724 0.025976283 -0.007292967 0.010056991 -0.027333198
478 -0.0001443543 -0.28178343 0.06833709 0.026549444 -0.03819602 0.11453892 -0.0055645052 -0.11305845 0.11193842 -0.0472199 -0.18386441 -0.057834122 -0.029129773 0.10606407 0.17998736 0.3318031 0.22164454 -0.11749581 0.056655448 -0.12475237 0.07469608 0.2988802 0.07826576 -0.009280807 -0.17680001 0.3829668 0.2538712 -0.19446397 -0.3363043 0.063449435 0.019764133 0.20962311 -0.27008042 0.20410588 -0.025172755 -0.015451737 0.20920995 0.026355848 -0.07527165 0.09103048 -0.27181473 -0.038079884 -0.030128952 -0.29711074 -0.18253836 0.0051751183 -0.08610291 -0.17954078 -0.117923364 -0.12766099 -0.05198999 0.013014034 0.102269314 0.39405912 0.2972912 0.29792354 -0.15524969 0.1292721 -0.1199591 -0.14968275 -0.0474123 0.22424614 -0.12860408 0.10217335 0.19931485 -0.21707065 0.112760976 -0.13372807 0.15455656 0.054842096 0.008630572 0.07726202 -0.16086559 0.12561786 -0.40674782 0.09996522 0.13291663 0.14763759 0.07364867 -0.08944058 -0.21210733 0.2995027 -0.042808503 0.00948729 -0.20883168 -0.28775352 0.33314705 0.010973392 0.30029657 -0.22671777 -0.06866591 -0.21516152 -0.029545536 0.026816508 0.0075032297 0.09617733 0.10849222 -0.18367244 0.102334775 0.2618816 0.1430733 -0.24559273 -0.07594373 0.24268973 0.11930061 -0.29152092 0.022702076 -0.05621904 0.09764222 0.12709042 0.20774247 -0.11391878 -0.09518743 0.27436545 0.00038081873 0.22273345 0.021557372 -0.056953825 -0.09648056 0.10627564 0.041005198 0.063292414 -0.20586954 -0.13908587 0.008559091 -0.024855312 0.0498001 -0.014941896
262 -0.022245713 -0.21188739 0.032639943 0.018592903 -0.033932753 0.11792759 0.0136857275 -0.10822572 0.118066244 -0.077426 -0.21067365 -0.047824666 -0.057022396 0.08688378 0.12423499 0.2800094 0.20275283 -0.10407119 0.048327334 -0.13178597 0.054588538 0.27281892 0.07849745 -0.0052538346 -0.16825552 0.40062398 0.24861738 -0.18028404 -0.33660758 0.09555245 -0.01979148 0.22395588 -0.2688773 0.17017937 -0.007728786 0.010490255 0.20083521 0.032939754 -0.05817469 0.09857851 -0.25372615 -0.013876793 -0.021284668 -0.26023126 -0.169083 -0.025067855 -0.085760824 -0.13798058 -0.14668705 -0.16272333 -0.047207594 0.010741367 0.13122289 0.3304221 0.27827692 0.30880675 -0.14380531 0.10465922 -0.11381721 -0.1487433 -0.049206913 0.2424818 -0.14646181 0.07851165 0.18484299 -0.18479751 0.106262565 -0.096642725 0.17861672 -0.0021389937 0.020596553 0.060451332 -0.1357021 0.099138334 -0.34303182 0.06315708 0.090176895 0.13001274 0.09950011 -0.10226394 -0.22966903 0.2638648 -0.09740625 -0.01617091 -0.18959491 -0.24824125 0.3368446 -0.009333789 0.23710577 -0.19862868 -0.071153365 -0.23368609 -0.05865817 0.031228399 -0.017809791 0.07349997 0.09818808 -0.19479352 0.09524663 0.23428187 0.13896996 -0.21153288 -0.08896151 0.26709118 0.11545311 -0.24287745 0.019910462 -0.014131451 0.09864528 0.12305696 0.1890503 -0.14181209 -0.072635286 0.2464442 -0.029145015 0.21482228 0.0223348 -0.07053684 -0.0490442 0.12002446 0.0412336 0.049109355 -0.20313019 -0.1061093 0.038424827 0.0066870833 0.03992254 -0.0074053328
49 0.019854816 -0.2631583 0.056572452 0.013409215 -0.050531834 0.11258158 0.01129726 -0.105721734 0.1121774 -0.05900845 -0.19266154 -0.071800224 -0.03126161 0.10196374 0.15064493 0.26831132 0.18062365 -0.09000322 0.060996592 -0.13198201 0.021188842 0.24600199 0.08244866 0.0002009958 -0.17695758 0.33719435 0.22814241 -0.18323943 -0.3029157 0.0708273 0.017198123 0.1999099 -0.23516698 0.17554307 0.015271112 0.0132077765 0.17728712 0.03578298 -0.07072787 0.06638704 -0.22907938 -0.02566279 -0.024582425 -0.2455968 -0.11891687 0.007935319 -0.06697466 -0.15569691 -0.10127334 -0.12981582 -0.058028795 0.030715466 0.104510896 0.3182067 0.27359772 0.27070758 -0.12674867 0.102482826 -0.099919885 -0.11509434 -0.05014961 0.20613408 -0.1266831 0.06999483 0.15471493 -0.2020151 0.10863383 -0.10360669 0.12812376 0.026903715 0.017299553 0.07026309 -0.14346184 0.0979324 -0.32299605 0.06698318 0.0686405 0.115435995 0.09257104 -0.12111898 -0.21095674 0.24834934 -0.0674275 0.011685442 -0.20436476 -0.2313994 0.30617857 -0.011571146 0.24535838 -0.17662401 -0.07368839 -0.20325549 -0.022143118 0.039928555 -0.008583071 0.09876337 0.1172572 -0.15607356 0.10384931 0.23030372 0.13486035 -0.19251236 -0.10625723 0.2574346 0.08278611 -0.25327823 0.047999382 -0.048713077 0.11560344 0.10346509 0.18860956 -0.1445025 -0.07374021 0.24146107 -0.03828216 0.21152985 0.053483944 -0.060271423 -0.043064646 0.096409224 0.026417105 0.03474768 -0.20652254 -0.10475326 0.03696322 0.023336668 0.0045209825 -0.0076842685
82 0.04951205 -0.26342806 0.065312944 0.02654695 -0.041127827 0.120910645 0.032948304 -0.114586696 0.124970414 -0.10678009 -0.1887046 -0.079516135 -0.008531974 0.0981826 0.14678761 0.15731242 0.14209533 -0.056826867 0.099883035 -0.14130084 -0.06971319 0.1912472 0.118487954 0.043382015 -0.18722825 0.30791116 0.22299148 -0.17469852 -0.2488368 0.061852735 0.009100491 0.18380806 -0.24702148 0.1386899 0.050698515 0.026848463 0.17640728 0.08610929 -0.052192632 0.017020172 -0.23416394 -0.041691773 -0.050428197 -0.19547413 -0.052411176 -0.020744624 -0.09489796 -0.12876658 -0.056293648 -0.10184053 -0.089576416 0.015129773 0.10034782 0.24756366 0.22373892 0.21798742 -0.136395 0.035957415 -0.08967332 -0.04880982 -0.06233091 0.15160505 -0.1415472 -0.0020386986 0.09929746 -0.20611735 0.11507058 -0.11873628 0.15053867 0.012875742 0.007866494 0.057833895 -0.13104048 0.042851157 -0.21756507 0.029827839 -0.025748556 0.061875936 0.13015792 -0.13482395 -0.15724008 0.21861982 -0.09383757 0.021055762 -0.17333385 -0.18986386 0.24304092 -0.024540974 0.17216837 -0.10827374 -0.04689168 -0.21628076 -0.022119652 0.06559113 -0.023803668 0.08246889 0.10852038 -0.13722606 0.074465066 0.16763082 0.1478896 -0.15668179 -0.10673851 0.19558501 0.041518796 -0.19822702 0.070376664 -0.0371057 0.105991125 0.038185976 0.14321986 -0.103565715 -0.007901622 0.191455 -0.09126157 0.17978196 0.10061072 -0.055763464 0.04907103 0.09951255 0.025519565 0.015327442 -0.20569898 -0.047720626 0.072634734 0.09134497 -0.043145258 0.020950088
464 -0.020300625 -0.22131217 0.047237683 0.025653608 -0.020123754 0.1214065 0.006121527 -0.09444448 0.13008621 -0.07332121 -0.20366152 -0.034534685 -0.05372416 0.07787016 0.13075705 0.26148093 0.20793642 -0.10895053 0.07170039 -0.13640289 0.03152236 0.2578499 0.08936897 -0.0012594208 -0.16003206 0.39228767 0.25299817 -0.18414275 -0.30858836 0.06851583 -0.017770994 0.20671548 -0.27126297 0.17558606 -0.010394878 -0.004742173 0.21861133 0.056105163 -0.059944887 0.07503808 -0.28722373 -0.0169784 -0.022164641 -0.25911668 -0.16585247 -0.033986904 -0.09968024 -0.1401695 -0.12451087 -0.14806245 -0.0381357 -0.0033191703 0.12354518 0.30756748 0.260086 0.28791565 -0.16444683 0.08056645 -0.104870215 -0.11999138 -0.0441011 0.21074386 -0.15590493 0.068340175 0.16000392 -0.19861442 0.09879958 -0.1103002 0.20266886 0.0034479904 0.011338515 0.050252378 -0.12282378 0.07524331 -0.3226503 0.06340781 0.07249242 0.123971835 0.105307646 -0.09441662 -0.20329154 0.2405029 -0.098391786 -0.008539152 -0.16957319 -0.2600426 0.32727933 0.00184045 0.20835021 -0.19963396 -0.05515654 -0.2224308 -0.053848643 0.02987875 -0.024699641 0.06928324 0.078985006 -0.19334531 0.09410551 0.22612074 0.14309266 -0.22850043 -0.05990833 0.22446725 0.103208415 -0.24475881 0.024040591 -0.013513609 0.09566637 0.09462973 0.16606387 -0.111089736 -0.04708733 0.22974966 -0.037284862 0.19193706 0.021581722 -0.037370156 -0.019645944 0.10777859 0.02789754 0.04957269 -0.20405889 -0.098912716 0.027328286 0.008839796 0.04388037 0.0068263616
529 -0.02024915 -0.32803237 0.08339786 0.041971814 -0.043990687 0.12194427 0.015283098 -0.1281324 0.11660952 -0.07191887 -0.20711684 -0.06021601 -0.07350162 0.08004638 0.19444555 0.33420455 0.25939825 -0.1150526 0.064717844 -0.09183458 0.09198369 0.32211766 0.07605204 -0.018853595 -0.16129759 0.42953336 0.27671877 -0.23582216 -0.34174588 0.03955832 0.0037617385 0.23075098 -0.3172433 0.22420284 -0.028312871 -0.060709536 0.21552134 0.036128297 -0.07530938 0.12228428 -0.2900375 -0.053977475 -0.00578729 -0.34919533 -0.23957366 0.0002692961 -0.07688473 -0.19414897 -0.12138596 -0.14954273 -0.071207166 0.013441272 0.11435114 0.39962137 0.32370603 0.3501621 -0.15333533 0.12254203 -0.13189015 -0.15065853 -0.06770956 0.2511681 -0.14622623 0.10452704 0.2171215 -0.25352308 0.09031227 -0.14429069 0.15704307 0.033622876 0.0011117641 0.046833016 -0.17743447 0.12700665 -0.43596357 0.12936522 0.12605245 0.18302675 0.041935947 -0.07964458 -0.19525218 0.3391489 -0.048842818 0.010319792 -0.19539727 -0.31365177 0.40282455 0.008478252 0.27585992 -0.2829649 -0.070374206 -0.2325911 0.0054533905 0.022350986 -0.0056443997 0.12015834 0.080476314 -0.19165936 0.0837531 0.27198067 0.15609267 -0.27363724 -0.06287078 0.24741513 0.1213674 -0.31013387 -0.0018558063 -0.02133783 0.1074078 0.14133197 0.20630957 -0.114902996 -0.12601525 0.28294426 0.02448448 0.21642168 -0.013761675 -0.039119214 -0.1274947 0.15726423 0.046905916 0.096878186 -0.2112637 -0.15679571 0.033367295 0.0012104046 0.07525649 -0.0030619972
319 0.74247235 -0.5553534 0.16610949 -0.06597391 -0.1387508 0.0036761556 0.09636483 -0.22660042 0.16530037 -0.057887502 -0.15281855 -0.3010383 0.385108 0.41813263 0.62922925 0.1844624 -0.24471459 -0.035963602 0.093001924 -0.45929176 -0.34789404 0.08958044 0.32762715 -0.039287854 -0.54704607 -0.061667997 0.21636067 -0.2501721 -0.20330615 0.05352683 0.44268742 0.18696181 0.016902681 0.22288823 0.32239404 0.43374726 0.28732914 0.24639037 0.018074334 -0.32850006 -0.052611727 -0.2380247 -0.14858587 0.03626692 0.5393851 0.17404039 -0.24455865 -0.1595121 0.17996556 0.05499086 0.12833631 0.036501657 -0.22512984 0.4198853 0.30945808 -0.0712135 -0.13658513 -0.059496947 -0.3234393 0.08700446 -0.23110285 -0.10640757 -0.09300446 0.120212905 -0.08051061 -0.36545363 0.41166785 -0.2534903 0.05098029 0.39769688 0.13054854 0.37789437 -0.31332868 0.16497017 -0.20702957 -0.017274108 -0.091714956 -0.20599937 0.26448226 -0.4158474 0.013762354 0.12217547 0.17792156 0.1040399 -0.3985368 -0.13084044 -0.3707552 0.12435247 0.7287576 0.2304353 -0.18385616 -0.13392584 0.050758164 0.42154866 -0.083134405 0.14193004 0.48239186 -0.008622218 0.4193574 0.06395173 0.3679195 -0.060863256 -0.5086334 0.40615228 -0.05248673 -0.5217376 0.62569314 -0.33368915 0.21986344 -0.20897128 0.12816337 -0.2043243 0.021889802 0.57939756 -0.44475573 0.42900193 0.62178206 -0.30124307 0.16167687 -0.21687676 0.022460654 -0.20374008 -0.3785607 -0.07520546 0.16751145 0.15722182 -0.54414904 -0.084223494
276 0.768983 -0.5709189 0.17135848 -0.06859626 -0.15062328 0.0062073907 0.09700341 -0.23687294 0.19795687 -0.07825945 -0.1826891 -0.30787158 0.40354553 0.43536112 0.655388 0.1776672 -0.26290908 -0.0555459 0.10847869 -0.49424258 -0.38993117 0.1015482 0.34795684 -0.024612822 -0.5787536 -0.058263347 0.24193966 -0.25821665 -0.22068514 0.05333344 0.43443072 0.19475013 0.010589058 0.22900966 0.35064352 0.46941093 0.31951717 0.28117296 0.03204767 -0.34988594 -0.07995763 -0.24565254 -0.16155165 0.043470323 0.5697931 0.15772614 -0.2836478 -0.17451867 0.19252314 0.05605343 0.13351329 0.039879926 -0.22426027 0.4329233 0.32685614 -0.078107305 -0.15772644 -0.063413136 -0.3334709 0.08460376 -0.24615811 -0.091118746 -0.1131568 0.10679762 -0.099237695 -0.39263687 0.4411784 -0.28678244 0.09590319 0.4102331 0.12986235 0.40624815 -0.3263915 0.16858257 -0.1885192 -0.03299154 -0.112445466 -0.21177487 0.3056463 -0.4474788 0.005243878 0.1209289 0.15390854 0.09724682 -0.40975243 -0.14560021 -0.39021212 0.13545007 0.7473776 0.24576804 -0.1781254 -0.15408738 0.04943998 0.44988284 -0.09723797 0.14546038 0.5100668 -0.03425955 0.4303521 0.057358198 0.39545223 -0.066901006 -0.5212987 0.4169271 -0.07363085 -0.54521835 0.66782784 -0.3460773 0.22850274 -0.22788984 0.13575831 -0.21579085 0.039553914 0.6004463 -0.48370513 0.46545124 0.6590813 -0.31184316 0.18577087 -0.21785438 0.0189845 -0.22911946 -0.4211008 -0.07527416 0.17255151 0.18936443 -0.5761833 -0.060676835
109 -0.047768727 -0.34522545 0.088653624 0.05323187 -0.085552245 0.1282198 0.033647 -0.15927331 0.12818043 -0.099076934 -0.22291842 -0.0970206 -0.07821126 0.10781061 0.24913236 0.33803383 0.2390511 -0.12418863 0.050874718 -0.0855363 0.09569338 0.36338553 0.10108437 -0.03253933 -0.19123729 0.46354923 0.2980264 -0.2619104 -0.3927536 0.032650188 -0.019017965 0.26188552 -0.35519645 0.20688875 -0.0075715017 -0.040257685 0.26375502 0.06408794 -0.07830238 0.14350998 -0.3031213 -0.0727015 0.011573137 -0.37025055 -0.28774768 0.0054619326 -0.075611174 -0.22895487 -0.15985698 -0.14415719 -0.09562978 0.027985016 0.120566495 0.45541832 0.392534 0.41950393 -0.1422468 0.16319777 -0.18150742 -0.18528351 -0.097645536 0.3092958 -0.16134095 0.10546512 0.24991193 -0.27819717 0.08672978 -0.17090066 0.16496436 0.054978218 0.0028618623 0.063488804 -0.21536408 0.16134666 -0.4759797 0.12583223 0.14014737 0.22015591 0.015087053 -0.10379528 -0.19996484 0.37916622 -0.075448856 0.0076110633 -0.21146801 -0.33473676 0.39783484 0.018124303 0.30616167 -0.31009233 -0.09156743 -0.26755527 0.032686397 0.04580205 -0.0031264916 0.1384955 0.10065437 -0.21704446 0.06631346 0.2650686 0.17826489 -0.28483936 -0.055284727 0.27553442 0.1483347 -0.33490795 -0.0025521559 -0.0043648197 0.07313689 0.13715212 0.22620969 -0.09846021 -0.1486324 0.31961113 0.05441921 0.24781682 -0.036386754 -0.07372221 -0.19244628 0.22904328 0.057930365 0.15230432 -0.2164294 -0.19049294 0.04649186 0.01780349 0.10364185 0.0064656134
88 -0.017978119 -0.28246474 0.0651808 0.029002821 -0.031649593 0.13183689 0.00730989 -0.112838276 0.11974151 -0.0734625 -0.19239886 -0.054262683 -0.060273957 0.08588916 0.1557343 0.3015413 0.22844093 -0.11675244 0.06934482 -0.102108695 0.0649211 0.28289616 0.0665718 -0.0024337005 -0.15745577 0.38359812 0.25796968 -0.18805328 -0.31086496 0.057083137 -0.0036343925 0.20310874 -0.28446475 0.20042135 -0.026131488 -0.02970324 0.21817678 0.037833273 -0.06640873 0.08484255 -0.29189494 -0.032225043 -0.026041139 -0.30244052 -0.1810879 -0.00828036 -0.09858472 -0.1722626 -0.110480525 -0.14020793 -0.058555227 0.009145741 0.11342879 0.3683231 0.28353286 0.31315705 -0.15765163 0.111108184 -0.10981221 -0.13751736 -0.04919349 0.21988693 -0.13642077 0.08996955 0.18732712 -0.22497219 0.1012136 -0.13345 0.16963619 0.034905948 -0.0011215245 0.063061565 -0.14597347 0.107608154 -0.3679345 0.0987678 0.11406171 0.14466208 0.077204846 -0.09247281 -0.21383832 0.28738853 -0.062357426 0.002442913 -0.19024242 -0.28841025 0.35327467 0.0005187422 0.24389446 -0.22797371 -0.058327895 -0.20931491 -0.019631177 0.02199847 -0.006482362 0.095693275 0.09908316 -0.18773662 0.079553425 0.25395784 0.14021865 -0.24768023 -0.062626354 0.22754832 0.103919886 -0.27548048 0.015831416 -0.038811535 0.09518076 0.11822518 0.18448511 -0.11281594 -0.080852844 0.24758573 -0.009765297 0.20514955 0.007823952 -0.025922677 -0.08126375 0.120266974 0.031540588 0.06612011 -0.2165501 -0.12671182 0.020486174 -0.0011117228 0.057077043 0.012757131
79 0.030408084 -0.29138073 0.08346033 0.03021052 -0.029556818 0.11229036 0.024501264 -0.11626267 0.13049063 -0.08331094 -0.18641967 -0.060798783 -0.038403947 0.07334694 0.17973062 0.24646541 0.18342437 -0.09755935 0.0879061 -0.123666264 0.0061669275 0.2562397 0.09390435 0.004590255 -0.18347204 0.3620757 0.2519255 -0.20562358 -0.28415555 0.03257643 0.014719462 0.19583559 -0.27312267 0.19314615 0.00901806 -0.008146282 0.21321142 0.074289545 -0.05290213 0.05421739 -0.26688814 -0.05579406 -0.025959998 -0.25403318 -0.13758403 -0.008374802 -0.112978935 -0.16485883 -0.07150453 -0.12131596 -0.05184767 0.011802068 0.091619596 0.30955356 0.2624339 0.26278555 -0.16107838 0.056281917 -0.11216174 -0.086368725 -0.074169494 0.18270233 -0.13620843 0.051863857 0.13336474 -0.2377411 0.10221449 -0.14567533 0.17438099 0.03582043 -0.003443526 0.06134253 -0.15093176 0.08387869 -0.30812705 0.08229544 0.049247563 0.114287436 0.092806965 -0.10809585 -0.16390695 0.2616071 -0.06700398 0.01423475 -0.16842422 -0.2670642 0.29566482 0.012814444 0.22269255 -0.18576485 -0.050370503 -0.22063975 -0.002486868 0.058629792 -0.0312868 0.09760157 0.08347706 -0.17092943 0.08637926 0.21356201 0.16967009 -0.21754733 -0.08165404 0.2049456 0.06729131 -0.26667872 0.04214082 -0.026263913 0.10399161 0.08059531 0.16746698 -0.10127297 -0.05938167 0.24684815 -0.042393982 0.2009081 0.0368186 -0.025212469 -0.03556871 0.11548172 0.03007118 0.05250527 -0.21834679 -0.11548156 0.041148867 0.046349533 0.013851991 0.016063774
112 0.07289083 -0.27180216 0.06953468 0.021806505 -0.03808828 0.085138254 0.016378585 -0.11185753 0.12762369 -0.09433653 -0.17492458 -0.07289525 -0.0053621526 0.08161072 0.17241617 0.17744464 0.13981636 -0.07224324 0.07263733 -0.14736803 -0.033939626 0.19836864 0.11441002 0.022007601 -0.17300113 0.2873769 0.22158682 -0.18626243 -0.24535477 0.035172604 0.018454237 0.17245565 -0.21850407 0.15990502 0.0451982 0.029423196 0.19389562 0.08701136 -0.041837472 0.015381326 -0.23312286 -0.052177623 -0.03357204 -0.20486605 -0.067206874 -0.012995572 -0.112700365 -0.13036412 -0.051934317 -0.10696409 -0.05356084 0.005178407 0.078189485 0.26718315 0.2190949 0.20060188 -0.14180493 0.036278073 -0.10519229 -0.06222179 -0.08404439 0.15369534 -0.14600335 0.033002794 0.09515813 -0.22705506 0.10978514 -0.13526818 0.16626684 0.021318017 -0.00058990705 0.06596868 -0.1412509 0.061913818 -0.23764935 0.05068974 -0.0033161445 0.0858785 0.11692434 -0.11947767 -0.12177941 0.21648869 -0.066932335 0.0024485698 -0.14999777 -0.2243846 0.22793674 0.00035542902 0.20723692 -0.13328655 -0.04310193 -0.1934094 -0.0014473893 0.059443608 -0.040572427 0.08462523 0.09416844 -0.13146698 0.08098678 0.16932006 0.1709741 -0.17095861 -0.10502234 0.19032845 0.04335422 -0.21985789 0.089214265 -0.04214961 0.103792176 0.051705968 0.12549461 -0.10508295 -0.035636082 0.21926415 -0.08495385 0.1887906 0.08222768 -0.04571245 0.008542741 0.08280742 0.035498068 0.0041835704 -0.2141123 -0.0702933 0.056197375 0.07222916 -0.04905611 0.024041556
293 0.72834015 -0.5362627 0.15381679 -0.07249452 -0.1364842 0.009563838 0.09765593 -0.22166707 0.19828044 -0.06935969 -0.17150544 -0.2951116 0.37580472 0.40463227 0.6117674 0.16353767 -0.24512427 -0.052333973 0.10514279 -0.47431815 -0.36834803 0.09516022 0.33152083 -0.023373343 -0.5408814 -0.055939365 0.21889855 -0.2488915 -0.21329002 0.044841733 0.39737827 0.17841099 0.013871673 0.21473512 0.32962918 0.4491231 0.29828697 0.25671107 0.03211943 -0.32379118 -0.079021886 -0.22731781 -0.14707792 0.04444558 0.5474586 0.14870767 -0.26729035 -0.15743068 0.18870221 0.05485269 0.12713721 0.03824156 -0.20780975 0.39516932 0.30550298 -0.077386685 -0.14983939 -0.06604252 -0.31155673 0.081847385 -0.23692723 -0.08397898 -0.10805872 0.08882577 -0.10687459 -0.3674623 0.4062937 -0.26044345 0.09537965 0.37562454 0.11802799 0.38713226 -0.30140856 0.16023801 -0.16363761 -0.03521817 -0.11461253 -0.2050618 0.29360756 -0.42415872 0.01152753 0.10661742 0.14297163 0.0796789 -0.38247856 -0.13896392 -0.37036422 0.12182388 0.6900261 0.22511089 -0.16220702 -0.14350246 0.045860294 0.41803205 -0.09661414 0.13004301 0.47883677 -0.03551688 0.40167052 0.05116096 0.3646941 -0.051934507 -0.48630232 0.3894116 -0.07505971 -0.5064795 0.6269324 -0.3279206 0.22000515 -0.21665017 0.123765655 -0.20769376 0.038009644 0.5606958 -0.45805764 0.43002534 0.61621207 -0.28578368 0.18995167 -0.20287187 0.020705052 -0.22448336 -0.38729835 -0.07777825 0.16873358 0.18723944 -0.54189855 -0.056501962
507 0.015577814 -0.27172196 0.058202565 0.019088017 -0.03288863 0.11204755 0.023053404 -0.10680088 0.11488529 -0.05056367 -0.18016256 -0.061552424 -0.03985496 0.09765713 0.16317357 0.27127466 0.19260728 -0.0892868 0.059733156 -0.120480545 0.027622761 0.24707268 0.08938962 0.0011331257 -0.17424615 0.35257897 0.23922503 -0.18952188 -0.28586873 0.054948255 0.013914676 0.20995104 -0.2534039 0.18115485 0.009088082 -0.012855388 0.1904421 0.04350813 -0.07483904 0.060979784 -0.24145533 -0.030702608 -0.028827809 -0.26339263 -0.13218929 0.0028073136 -0.065673776 -0.14705299 -0.09032474 -0.12607998 -0.056248415 0.012499156 0.10404508 0.322872 0.26941752 0.27584577 -0.1378522 0.07752043 -0.10871071 -0.098189756 -0.055545695 0.18508635 -0.12743285 0.062243063 0.15911712 -0.20611304 0.09922993 -0.1113879 0.1339683 0.025237843 0.011655181 0.051570367 -0.15227102 0.09058621 -0.33474565 0.08228927 0.072436325 0.116819285 0.080903724 -0.10005548 -0.18401904 0.26809672 -0.05138599 0.012025152 -0.18793014 -0.24522746 0.30771244 -0.0076798336 0.23666765 -0.19585215 -0.066598296 -0.2109566 -0.018870056 0.03653008 -0.013671942 0.0925273 0.09763171 -0.1600207 0.09084087 0.21896511 0.13681783 -0.20949288 -0.08774635 0.23571268 0.085234836 -0.24987827 0.026278697 -0.03624899 0.10503002 0.09693057 0.18289007 -0.12118619 -0.07247232 0.24318439 -0.02110028 0.19368802 0.035081867 -0.05119669 -0.0448324 0.10287973 0.03706561 0.043788888 -0.18524484 -0.110079095 0.034084298 0.020118387 0.021838777 -0.015989698
512 0.20724532 -0.32256144 0.006411923 -0.006438032 -0.25524387 0.20819655 -0.119712636 -0.119974986 0.17740422 -0.24771227 -0.35285303 -0.3068892 0.18331487 0.3054865 0.08840456 0.08392873 -0.07480857 -0.15188473 0.13364051 -0.3027602 -0.34586775 0.09095053 0.14245343 0.16106902 -0.29625988 0.034761347 0.13754164 -0.072467506 -0.35367748 0.21409704 -0.020221751 0.068874404 -0.014705637 -0.021012293 0.22620629 0.44252533 0.23091522 0.090467155 -0.045207024 -0.05073551 -0.24656515 0.13415724 -0.045095462 0.05592301 0.3474326 -0.10407802 -0.19137266 -0.23994234 -0.03518124 -0.115591235 -0.07890719 0.17646006 0.047064796 0.28575018 0.30562663 0.16361894 -0.06131075 0.3009703 0.023004197 -0.17544651 -0.06449839 0.31894577 -0.17229323 -0.0007374786 -0.133697 -0.18397434 0.30665538 -0.15095091 0.21796408 -0.020532355 -0.019042842 0.30602625 -0.091071926 0.18891343 -0.018264266 -0.10244993 -0.042461466 -0.04870443 0.35244492 -0.45617884 -0.44247463 -0.18021595 -0.24407037 -0.024449216 -0.51759213 -0.06279243 0.13018733 -0.058911573 0.29981917 0.059685107 -0.089031175 -0.098502085 0.010844267 0.13178085 0.016532125 0.14008361 0.41255417 -0.1177303 0.1515672 0.16736484 0.030465992 0.12236575 -0.1750053 0.342614 -0.078969195 -0.18791011 0.42874017 -0.25989604 0.22100714 -0.051046554 0.16450335 -0.41069084 0.13100962 0.16761696 -0.28490233 0.25835222 0.36277813 -0.14752159 0.14881195 -0.014244476 -0.1127063 -0.22035849 -0.5335383 -0.02698224 0.008111394 0.23803374 -0.39625835 0.21929578
294 0.58295065 -0.4746016 0.13569215 -0.05759167 -0.13869493 0.0024688223 0.060995575 -0.19383006 0.1325929 -0.019999454 -0.1277261 -0.25186387 0.31532863 0.37041953 0.5121332 0.18649092 -0.17892483 -0.021026952 0.062437247 -0.36443317 -0.26279482 0.08696644 0.26740688 -0.03834468 -0.44500583 -0.06645477 0.171841 -0.20835714 -0.17985001 0.039605096 0.36470148 0.15516247 0.014877107 0.17261985 0.26600495 0.34160393 0.20267676 0.17633027 -0.0048977737 -0.2543072 -0.024395391 -0.18596038 -0.11634516 0.011178984 0.42054126 0.1603293 -0.15200087 -0.14280546 0.13827075 0.036112968 0.07929583 0.047762226 -0.17502221 0.37204546 0.27609995 -0.038419906 -0.08160498 -0.012041557 -0.25220668 0.05303257 -0.18356694 -0.063193426 -0.061755978 0.1062644 -0.03576415 -0.29183957 0.3333954 -0.19755809 -0.0035296453 0.32183263 0.09578081 0.30693215 -0.26974252 0.15332213 -0.20781831 -0.006562975 -0.056385525 -0.14404508 0.18251386 -0.33725652 -0.0034546512 0.12811154 0.16631821 0.094147384 -0.34131557 -0.10343041 -0.2872617 0.08914224 0.6096045 0.15802528 -0.16378035 -0.10406751 0.055305526 0.32372674 -0.045317475 0.12969501 0.39219412 0.0031422577 0.33278477 0.0725306 0.2715237 -0.03934403 -0.41555873 0.34132314 -0.031888243 -0.41363868 0.49940163 -0.2792332 0.17707196 -0.13562682 0.1415494 -0.1711559 -0.015762834 0.46553603 -0.3266535 0.3465506 0.4987888 -0.25320685 0.092586465 -0.15291043 0.03807567 -0.1598666 -0.29162404 -0.078640565 0.13071892 0.12333875 -0.42113823 -0.092026174
873 0.089823596 -0.34543797 0.09390626 0.018927408 -0.06349261 0.081957094 0.006770947 -0.12602817 0.13856673 -0.06410151 -0.17399916 -0.08687806 0.015815847 0.12016795 0.23788726 0.25101253 0.16228917 -0.07950471 0.051430386 -0.14871973 -0.0057389555 0.240842 0.13220994 0.011210893 -0.19692183 0.27490094 0.23673712 -0.21207502 -0.27397808 0.024758887 0.04937057 0.18658608 -0.23051745 0.18639934 0.05028504 0.017356047 0.19721776 0.07447697 -0.067106284 0.019859336 -0.23720416 -0.067824595 -0.046142623 -0.24486616 -0.075552054 0.032539573 -0.07461236 -0.16230133 -0.050132778 -0.09066922 -0.077050306 0.011799936 0.0706387 0.34902647 0.26793382 0.23180522 -0.13291189 0.075473346 -0.13235365 -0.077009924 -0.089938596 0.16909167 -0.12931019 0.06568891 0.12475579 -0.2607115 0.12231721 -0.14900133 0.110705756 0.07141517 -0.015527348 0.07845288 -0.18630058 0.09941687 -0.32891792 0.068196096 0.044174556 0.115609586 0.074451715 -0.124289095 -0.12512648 0.27463624 -0.013168497 0.021239486 -0.19414046 -0.25548315 0.22818403 0.007147023 0.28767282 -0.16608988 -0.061274596 -0.18883583 0.017769305 0.054073937 -0.011374698 0.10979393 0.11771965 -0.123029344 0.088557705 0.1992943 0.16814299 -0.19458953 -0.11000328 0.20259012 0.06381934 -0.26339287 0.09439704 -0.07496095 0.09750367 0.072695956 0.17730205 -0.105963886 -0.08047867 0.26342466 -0.04525219 0.21860456 0.07832819 -0.0666351 -0.046551064 0.09970906 0.05988578 0.030259123 -0.2046091 -0.10575405 0.038834874 0.059434388 -0.028414948 -0.004567161
971 0.055693824 -0.25029877 0.066609025 0.025930816 -0.032244362 0.10582045 0.021898247 -0.10661999 0.117994 -0.088970125 -0.17347993 -0.07457677 -0.019441074 0.08327688 0.16112174 0.1911724 0.13504143 -0.08973212 0.08452203 -0.13189074 -0.028876929 0.20927492 0.09306366 0.0141240135 -0.17874344 0.30443692 0.21881746 -0.16571386 -0.24587934 0.047943737 0.016658727 0.17398803 -0.22592287 0.15504473 0.0274388 0.03463277 0.20592591 0.08338612 -0.041738108 0.026458075 -0.23531882 -0.038109902 -0.039771643 -0.1981473 -0.06828025 -0.018244652 -0.11614051 -0.14007518 -0.06545523 -0.102876715 -0.04033982 0.012119924 0.080302976 0.2642988 0.23377445 0.22406101 -0.14257309 0.05554063 -0.11192422 -0.07905291 -0.062649935 0.15684786 -0.12396769 0.04194199 0.09543842 -0.20187524 0.11194441 -0.13536349 0.16510789 0.033782616 0.010829621 0.07522553 -0.13088539 0.07925876 -0.24429807 0.054800797 0.026919222 0.07589026 0.10938791 -0.12338298 -0.16335976 0.20069861 -0.08177813 0.012092975 -0.17004414 -0.21248323 0.2242518 0.012683938 0.21336634 -0.12384617 -0.053631384 -0.19540751 -0.015374472 0.07719985 -0.028043061 0.07896638 0.115106605 -0.15340324 0.08953715 0.16884178 0.15313478 -0.17523892 -0.089761324 0.2019326 0.053953063 -0.24041568 0.074759685 -0.039503817 0.09306658 0.03888834 0.13285224 -0.107002094 -0.025804618 0.22453584 -0.073506914 0.19201784 0.073479034 -0.04132083 -0.0059814705 0.0782696 0.016948193 0.02207266 -0.20868674 -0.08505849 0.04032562 0.04929045 -0.019931953 0.025982864
471 0.08503411 -0.243823 0.06371304 0.018399486 -0.024044245 0.102918096 0.046862856 -0.10414494 0.11498725 -0.09219059 -0.15709282 -0.08577955 -0.014499217 0.08332626 0.15199342 0.14918682 0.10001831 -0.07748964 0.085652195 -0.1371715 -0.058046907 0.16790655 0.09332707 0.026497616 -0.17955747 0.27696446 0.20022233 -0.15090057 -0.20881566 0.057689577 0.033668168 0.17862073 -0.21684602 0.15379253 0.048506394 0.03892121 0.17283636 0.07574272 -0.04308812 -0.00016461941 -0.19146752 -0.03504295 -0.04732943 -0.16393779 -0.015033323 0.0009237262 -0.09822934 -0.10648099 -0.033892166 -0.094972946 -0.04253569 0.008680466 0.08082126 0.2250933 0.20499511 0.19539334 -0.13090059 0.018719617 -0.10949454 -0.034056168 -0.060714908 0.118144274 -0.12024914 0.016449284 0.07395147 -0.19237182 0.106829114 -0.11851175 0.12527792 0.031486385 0.026473407 0.06770983 -0.12214977 0.05893752 -0.19805665 0.043775514 -0.012769332 0.04236008 0.13587952 -0.12535602 -0.15361346 0.18095933 -0.073445015 0.018361896 -0.16610564 -0.18416831 0.20361434 -0.005762737 0.18399072 -0.07665948 -0.049606025 -0.1848677 -0.022532308 0.086206116 -0.03274321 0.079473935 0.13623142 -0.12580752 0.10101411 0.15191737 0.15406239 -0.14977728 -0.1204953 0.20904414 0.030310167 -0.2140446 0.08257964 -0.051905084 0.106462404 0.017811138 0.12060732 -0.11893857 -0.015372424 0.2033536 -0.106442705 0.18589152 0.09824094 -0.05591205 0.03895943 0.054454 0.0032868464 0.005881731 -0.19415142 -0.05052622 0.06102803 0.071636274 -0.058127884 0.008927866
875 0.087974496 -0.28926748 0.07072024 0.008916409 -0.04533221 0.082389206 0.008414219 -0.109328605 0.10675137 -0.053421505 -0.15907702 -0.07605153 0.012080997 0.110267 0.1876874 0.22735138 0.14392829 -0.067516774 0.043027952 -0.1388519 -0.004678322 0.20732866 0.107911244 0.0026925164 -0.18089603 0.26328748 0.20787519 -0.18325266 -0.24667373 0.051895667 0.065512575 0.17758667 -0.20000088 0.16965689 0.035593234 0.022062026 0.15759738 0.05198905 -0.0620488 0.018575361 -0.19261298 -0.04469929 -0.029644957 -0.21088213 -0.0538275 0.026579421 -0.06924398 -0.12444173 -0.051010437 -0.103292726 -0.046454266 0.013700284 0.06051163 0.29994616 0.23035961 0.20593788 -0.11485637 0.06450099 -0.10935413 -0.07117779 -0.07505885 0.14211518 -0.1143803 0.07840791 0.12536605 -0.21713462 0.118880436 -0.10920939 0.09832927 0.04966147 0.017421665 0.07003628 -0.15755312 0.08931371 -0.29727572 0.064721495 0.041155275 0.08295657 0.08690115 -0.12372088 -0.14551905 0.2311081 -0.013712818 0.020581972 -0.18817489 -0.21307507 0.22932775 -0.009412146 0.26569903 -0.14450923 -0.074147746 -0.17021148 0.00031487196 0.04965542 -0.017926957 0.09401547 0.11483243 -0.11367244 0.10892734 0.19112049 0.14717126 -0.16491847 -0.13394554 0.22905014 0.067503884 -0.24052641 0.08860154 -0.07049086 0.11009957 0.082388476 0.16043389 -0.12502216 -0.07055549 0.2413362 -0.062066123 0.19507152 0.096315965 -0.07121478 -0.02299359 0.06060627 0.034821123 0.013335781 -0.19320674 -0.08936877 0.047252424 0.03538308 -0.04299537 -0.023707688
556 0.08114888 -0.24924642 0.066286206 0.020737126 -0.033505827 0.100494295 0.030052813 -0.10242542 0.13217638 -0.11218368 -0.17564383 -0.07519467 -0.003135031 0.08787893 0.15929988 0.15139419 0.10947367 -0.07601633 0.09549355 -0.15678798 -0.0699336 0.18647204 0.11199331 0.020253876 -0.18444876 0.27952322 0.21544226 -0.16931164 -0.23558205 0.050562117 0.018178035 0.16254616 -0.20835763 0.14683457 0.047968917 0.049830493 0.19703472 0.09898702 -0.02660275 0.0036529547 -0.22606133 -0.054160994 -0.04481598 -0.17318152 -0.03518425 -0.017426416 -0.13216166 -0.12120172 -0.045667283 -0.09340276 -0.036833894 0.009552841 0.0765288 0.2377734 0.21266128 0.18142225 -0.1507995 0.02604088 -0.1005744 -0.055770375 -0.080740124 0.1382972 -0.14209083 0.0156010315 0.07630874 -0.21387962 0.119620055 -0.13558921 0.1759677 0.03314196 0.016278626 0.08486986 -0.12224258 0.059245404 -0.18997817 0.033488322 -0.021365073 0.04791838 0.14156254 -0.13422586 -0.1294433 0.18391147 -0.08822803 0.0030047428 -0.15116401 -0.20327671 0.19851595 0.0067675314 0.19000171 -0.094222814 -0.041396957 -0.19954017 -0.014921557 0.08849901 -0.042002786 0.082852535 0.11337797 -0.14447011 0.08933345 0.14971332 0.17282654 -0.15689816 -0.11440527 0.19355021 0.02920117 -0.2189186 0.09745288 -0.046198517 0.10622776 0.017760914 0.11820321 -0.1075516 -0.006423413 0.21236098 -0.11591191 0.18908222 0.10325312 -0.05002227 0.034225013 0.065134265 0.011656406 0.003892876 -0.22140265 -0.062296335 0.06364086 0.07871292 -0.0598141 0.04145652
954 0.062424082 -0.287556 0.07614965 0.020751093 -0.03370367 0.103372246 0.024067804 -0.10344859 0.118760034 -0.07633678 -0.166632 -0.07875395 -0.010499725 0.08730899 0.17186522 0.20671163 0.1351538 -0.09150117 0.08184216 -0.124983124 -0.014838923 0.20839062 0.09075391 0.014704914 -0.1802201 0.28175583 0.21407905 -0.17421345 -0.24203265 0.03244751 0.0338493 0.17358066 -0.22508441 0.17108078 0.026517339 0.0140380375 0.18594445 0.07427551 -0.049098913 0.017148776 -0.22385815 -0.04333885 -0.0385438 -0.20583063 -0.065057576 0.0047886833 -0.099682465 -0.14559983 -0.04675496 -0.09673247 -0.049103167 0.020756923 0.06899918 0.28570992 0.23353417 0.21806052 -0.14008227 0.06430497 -0.10644312 -0.070860036 -0.0696423 0.15096064 -0.11303544 0.047243327 0.10043838 -0.21838886 0.112704806 -0.1432233 0.12471354 0.04854362 0.0077512627 0.07698131 -0.1384133 0.09103751 -0.26511702 0.06591183 0.035417758 0.08367046 0.09664828 -0.120277934 -0.15059882 0.21498044 -0.049002685 0.024523022 -0.17924184 -0.22033009 0.23543797 0.0051842844 0.22365744 -0.13914691 -0.055360533 -0.18050934 0.0031669682 0.06940863 -0.015439578 0.09715771 0.11330362 -0.13454776 0.08862372 0.18378426 0.14378777 -0.17653598 -0.0928491 0.18961802 0.051887978 -0.24732545 0.07129375 -0.061768234 0.10091041 0.048419204 0.14787334 -0.10737893 -0.045190293 0.22411264 -0.060364358 0.18872555 0.070105135 -0.031523254 -0.02057096 0.076458335 0.017696185 0.03139193 -0.20559745 -0.092074774 0.033163283 0.051078532 -0.025442535 0.009234297
462 0.10432116 -0.2382115 0.060813487 0.025076238 -0.04283725 0.10086767 0.039768398 -0.11222509 0.122779585 -0.11960588 -0.16876124 -0.08425143 0.015355989 0.09757717 0.15696774 0.10260744 0.07633835 -0.05608074 0.10065927 -0.16480216 -0.109417275 0.14859626 0.124809384 0.032808512 -0.1976161 0.25343686 0.2050434 -0.16413683 -0.21494815 0.060707852 0.034506746 0.16528948 -0.19664268 0.12323651 0.07658741 0.08084312 0.19362569 0.10760433 -0.023285022 -0.020522527 -0.20755495 -0.05479901 -0.048841484 -0.13235591 0.015044074 -0.022790123 -0.13014354 -0.10554482 -0.035022028 -0.08471378 -0.046539895 0.017900635 0.06980774 0.21165743 0.1925562 0.1669496 -0.13905165 0.0128883375 -0.10280302 -0.027515225 -0.07566921 0.11082602 -0.14523539 -0.0027887188 0.053339437 -0.20341368 0.12514023 -0.13149665 0.16531765 0.028006025 0.020346364 0.09125406 -0.11930616 0.043476835 -0.14820182 0.009204249 -0.06307462 0.015261017 0.15373519 -0.15997906 -0.123485394 0.15721124 -0.097769774 0.00836624 -0.15390036 -0.1606264 0.15850793 -0.0071346373 0.16911365 -0.044653635 -0.041977968 -0.19378848 -0.013096274 0.10883574 -0.0558497 0.07466767 0.12788773 -0.12255774 0.089262195 0.12369968 0.16936383 -0.12686367 -0.13396586 0.20065197 0.01070444 -0.20497909 0.122358166 -0.04777649 0.10959201 -0.0019295608 0.0951273 -0.11117658 0.017666655 0.20188108 -0.14825392 0.18524891 0.1393204 -0.07017968 0.072718665 0.052186083 0.011489354 -0.016501456 -0.21781379 -0.032868672 0.08298182 0.10614546 -0.101359196 0.03607798
284 0.10440262 -0.20956373 0.04668193 0.008753716 -0.01983432 0.08321385 0.0421531 -0.0900732 0.11853991 -0.09183625 -0.1532405 -0.07506676 -0.0034473331 0.07470028 0.13642919 0.11292222 0.06733711 -0.068594314 0.07438743 -0.1433448 -0.07583326 0.13868351 0.09038955 0.019158252 -0.17267922 0.23124588 0.18095915 -0.13394031 -0.19101486 0.049468517 0.019753272 0.1496955 -0.1733426 0.12704077 0.061519504 0.072630264 0.16485116 0.08800219 -0.021682851 -0.015720734 -0.17162661 -0.039737523 -0.045739293 -0.12490879 0.018023383 -0.0066786297 -0.11182651 -0.08962267 -0.012940451 -0.0810662 -0.019125719 0.008143515 0.06000584 0.17973374 0.17403843 0.14544408 -0.12730464 0.001445224 -0.09250776 -0.030582074 -0.070080996 0.09822354 -0.11244965 0.00810084 0.038868908 -0.17877123 0.09943055 -0.10646429 0.14299105 0.020519616 0.024227008 0.07585823 -0.10856173 0.04739056 -0.13894986 0.022038424 -0.0264844 0.027356777 0.14249113 -0.1294069 -0.12377137 0.13262285 -0.074965686 0.005607878 -0.1423254 -0.15714571 0.15062553 -0.0032631382 0.1535342 -0.048973992 -0.04368537 -0.15679508 -0.02185662 0.0886183 -0.047616288 0.06136096 0.12121408 -0.116769426 0.099793226 0.11784316 0.14939886 -0.120329484 -0.120145425 0.18719134 0.009600006 -0.195218 0.104572296 -0.046453312 0.105241925 -0.0015075469 0.092484586 -0.11271685 0.0052957423 0.19109054 -0.124490604 0.17254752 0.106219515 -0.05154757 0.058109965 0.036736608 0.0060318676 -0.017973008 -0.19437914 -0.044931795 0.060676906 0.084369265 -0.086504765 0.017121794
766 0.15995443 -0.29259366 0.028856976 0.008031645 -0.18812655 0.1770863 -0.07092495 -0.10951555 0.14849482 -0.18899594 -0.28866094 -0.22656915 0.12825447 0.23749043 0.10860787 0.11439641 -0.019077254 -0.12350744 0.11622987 -0.24319041 -0.24312583 0.11284753 0.12444398 0.10458428 -0.26016948 0.11213579 0.15226385 -0.096985646 -0.30388427 0.1680736 0.010403864 0.10571985 -0.07748811 0.029256577 0.16534118 0.31234896 0.21657498 0.086118355 -0.046542227 -0.035786893 -0.23210032 0.076567024 -0.04566544 -0.013584879 0.2250117 -0.068028994 -0.15342006 -0.195837 -0.04743666 -0.11229571 -0.063658655 0.122733325 0.06320459 0.27982768 0.27694762 0.18118796 -0.08591944 0.22049087 -0.021834526 -0.13581616 -0.058704138 0.2557592 -0.15075593 0.019829784 -0.055771638 -0.18122269 0.24923831 -0.14418375 0.17741582 -0.0028435544 -0.0007941237 0.23430957 -0.09355669 0.15493593 -0.09334013 -0.056504436 -0.016913787 -0.015207045 0.26730016 -0.34637386 -0.3566941 -0.059239667 -0.19102271 -0.0059904926 -0.40538442 -0.09460339 0.15322585 -0.038111 0.28279734 0.018951569 -0.087534 -0.12893213 -0.009222125 0.120810315 0.010103973 0.11921246 0.32164043 -0.122835144 0.1306103 0.16842507 0.06429489 0.031074317 -0.15831856 0.29750478 -0.033017997 -0.20651376 0.3175487 -0.18894506 0.17237724 -0.026674539 0.15673952 -0.31268552 0.07938301 0.18212673 -0.22277176 0.2419236 0.27621716 -0.12437436 0.10063658 0.010960379 -0.07361111 -0.13562268 -0.42652094 -0.038758196 0.017467348 0.1685091 -0.27970412 0.14554752
